{"learner":{"attributes":{"best_iteration":"99","best_ntree_limit":"100","scikit_learn":"{\"use_label_encoder\": false, \"n_estimators\": 100, \"objective\": \"multi:softprob\", \"max_depth\": 3, \"max_leaves\": null, \"max_bin\": null, \"grow_policy\": null, \"learning_rate\": null, \"verbosity\": null, \"booster\": null, \"tree_method\": \"approx\", \"gamma\": null, \"min_child_weight\": null, \"max_delta_step\": null, \"subsample\": null, \"sampling_method\": null, \"colsample_bytree\": null, \"colsample_bylevel\": null, \"colsample_bynode\": null, \"reg_alpha\": null, \"reg_lambda\": null, \"scale_pos_weight\": null, \"base_score\": null, \"missing\": NaN, \"num_parallel_tree\": null, \"random_state\": 42, \"n_jobs\": null, \"monotone_constraints\": null, \"interaction_constraints\": null, \"importance_type\": null, \"gpu_id\": null, \"validate_parameters\": null, \"predictor\": null, \"enable_categorical\": false, \"feature_types\": null, \"max_cat_to_onehot\": null, \"max_cat_threshold\": null, \"eval_metric\": null, \"early_stopping_rounds\": null, \"callbacks\": null, \"classes_\": [0, 1, 2], \"kwargs\": {\"eval_metric\": \"mlogloss\"}, \"n_classes_\": 3, \"_estimator_type\": \"classifier\"}"},"feature_names":[],"feature_types":[],"gradient_booster":{"model":{"gbtree_model_param":{"num_parallel_tree":"1","num_trees":"300","size_leaf_vector":"0"},"tree_info":[0,1,2,0,1,2,0,1,2,0,1,2,0,1,2,0,1,2,0,1,2,0,1,2,0,1,2,0,1,2,0,1,2,0,1,2,0,1,2,0,1,2,0,1,2,0,1,2,0,1,2,0,1,2,0,1,2,0,1,2,0,1,2,0,1,2,0,1,2,0,1,2,0,1,2,0,1,2,0,1,2,0,1,2,0,1,2,0,1,2,0,1,2,0,1,2,0,1,2,0,1,2,0,1,2,0,1,2,0,1,2,0,1,2,0,1,2,0,1,2,0,1,2,0,1,2,0,1,2,0,1,2,0,1,2,0,1,2,0,1,2,0,1,2,0,1,2,0,1,2,0,1,2,0,1,2,0,1,2,0,1,2,0,1,2,0,1,2,0,1,2,0,1,2,0,1,2,0,1,2,0,1,2,0,1,2,0,1,2,0,1,2,0,1,2,0,1,2,0,1,2,0,1,2,0,1,2,0,1,2,0,1,2,0,1,2,0,1,2,0,1,2,0,1,2,0,1,2,0,1,2,0,1,2,0,1,2,0,1,2,0,1,2,0,1,2,0,1,2,0,1,2,0,1,2,0,1,2,0,1,2,0,1,2,0,1,2,0,1,2,0,1,2,0,1,2,0,1,2,0,1,2,0,1,2,0,1,2,0,1,2,0,1,2,0,1,2,0,1,2],"trees":[{"base_weights":[1.1090773E0,-3.3807084E-1,1.2807734E0,-6.7746073E-1,4.8676692E-2,1.3399941E0,-4.3697867E-1,-6.807678E-1,1E0,4.9230844E-1,-6.017083E-1,-1.646349E-1,1.4114288E0,-1.14271775E-1,-6.0622805E-1],"categories":[],"categories_nodes":[],"categories_segments":[],"categories_sizes":[],"default_left":[0,0,0,0,0,0,0,0,0,0,0,0,0,0,0],"id":0,"left_children":[1,3,5,7,9,11,13,-1,-1,-1,-1,-1,-1,-1,-1],"loss_changes":[5.498062E4,3.0805896E3,2.0122746E4,7.0024345E1,3.165582E3,2.0552535E4,3.6002682E2,0E0,0E0,0E0,0E0,0E0,0E0,0E0,0E0],"parents":[2147483647,0,0,1,1,2,2,3,3,4,4,5,5,6,6],"right_children":[2,4,6,8,10,12,14,-1,-1,-1,-1,-1,-1,-1,-1],"split_conditions":[-3.0134112E-1,-7.659903E-1,1.9259176E0,1.7216063E0,7.4786276E-1,-4.855395E-1,7.14672E-1,-2.0423034E-1,3E-1,1.4769253E-1,-1.8051249E-1,-4.9390472E-2,4.2342865E-1,-3.4281533E-2,-1.8186842E-1],"split_indices":[102,70,118,121,54,5,66,0,0,0,0,0,0,0,0],"split_type":[0,0,0,0,0,0,0,0,0,0,0,0,0,0,0],"sum_hessian":[2.212742E5,2.3468443E4,1.9780577E5,1.249911E4,1.0969333E4,1.9121377E5,6.5919995E3,1.247511E4,2.3999998E1,6.521333E3,4.4479995E3,8.666666E3,1.825471E5,2.2684443E3,4.323555E3],"tree_param":{"num_deleted":"0","num_feature":"160","num_nodes":"15","size_leaf_vector":"0"}},{"base_weights":[-6.2552726E-1,-6.988832E-1,9.1481555E-1,-7.2646165E-1,8.499143E-1,4.1577557E-1,1.2441279E0,-7.2989744E-1,7.0363754E-1,4.5559517E-1,1.2393448E0,6.530085E-2,1.2974318E0,5.264714E-1,1.2964486E0],"categories":[],"categories_nodes":[],"categories_segments":[],"categories_sizes":[],"default_left":[0,0,0,0,0,0,0,0,0,0,0,0,0,0,0],"id":1,"left_children":[1,3,5,7,9,11,13,-1,-1,-1,-1,-1,-1,-1,-1],"loss_changes":[2.500326E4,9.022414E3,1.6526151E3,1.02019037E3,5.669416E2,1.2360798E3,2.2684782E2,0E0,0E0,0E0,0E0,0E0,0E0,0E0,0E0],"parents":[2147483647,0,0,1,1,2,2,3,3,4,4,5,5,6,6],"right_children":[2,4,6,8,10,12,14,-1,-1,-1,-1,-1,-1,-1,-1],"split_conditions":[9.178476E-1,1.4945498E0,1.8982134E0,1.9259176E0,4.294264E0,1.9353285E0,-3.1187277E0,-2.1896924E-1,2.1109127E-1,1.3667856E-1,3.7180346E-1,1.9590257E-2,3.8922957E-1,1.5794142E-1,3.8893458E-1],"split_indices":[85,113,70,118,97,101,101,0,0,0,0,0,0,0,0],"split_type":[0,0,0,0,0,0,0,0,0,0,0,0,0,0,0],"sum_hessian":[2.212742E5,2.1121598E5,1.0058222E4,2.0752133E5,3.6946665E3,3.9995554E3,6.0586665E3,2.0702444E5,4.9688885E2,1.8368888E3,1.8577777E3,2.8626665E3,1.1368888E3,4.1244443E2,5.6462217E3],"tree_param":{"num_deleted":"0","num_feature":"160","num_nodes":"15","size_leaf_vector":"0"}},{"base_weights":[-4.8355022E-1,1.1497661E0,-6.468842E-1,1.387647E0,7.1435493E-1,6.191981E-1,-6.9344664E-1,1.4001756E0,-2.2015339E-1,1.3481157E0,3.7362158E-1,7.924226E-1,-3.2743192E-1,2.0107958E-1,-7.108569E-1],"categories":[],"categories_nodes":[],"categories_segments":[],"categories_sizes":[],"default_left":[0,0,0,0,0,0,0,0,0,0,0,0,0,0,0],"id":2,"left_children":[1,3,5,7,9,11,13,-1,-1,-1,-1,-1,-1,-1,-1],"loss_changes":[5.903168E4,2.0826013E3,1.185917E4,2.623366E2,1.5347339E3,1.1704352E3,3.0218647E3,0E0,0E0,0E0,0E0,0E0,0E0,0E0,0E0],"parents":[2147483647,0,0,1,1,2,2,3,3,4,4,5,5,6,6],"right_children":[2,4,6,8,10,12,14,-1,-1,-1,-1,-1,-1,-1,-1],"split_conditions":[-3.6051852E-1,-9.244605E-1,-4.855395E-1,5.809812E-1,-1.0075274E0,5.152698E-2,-9.191485E-1,4.2005268E-1,-6.604602E-2,4.044347E-1,1.1208648E-1,2.377268E-1,-9.822958E-2,6.0323875E-2,-2.1325709E-1],"split_indices":[70,69,5,73,6,81,118,0,0,0,0,0,0,0,0],"split_type":[0,0,0,0,0,0,0,0,0,0,0,0,0,0,0],"sum_hessian":[2.212742E5,2.0115555E4,2.0115866E5,1.300711E4,7.108444E3,7.135111E3,1.9402355E5,1.2906666E4,1.00444435E2,2.4844443E3,4.6239995E3,6.031555E3,1.1035555E3,3.7039998E3,1.9031955E5],"tree_param":{"num_deleted":"0","num_feature":"160","num_nodes":"15","size_leaf_vector":"0"}},{"base_weights":[7.7140486E-1,-3.039587E-1,8.7894124E-1,-6.0568726E-1,-2.2079635E-3,-3.5387895E-1,9.415031E-1,-6.24377E-1,-1.3510117E-2,-6.00816E-1,3.9873263E-1,-6.190629E-1,-6.0820542E-2,9.6603376E-1,-1.7054114E-1],"categories":[],"categories_nodes":[],"categories_segments":[],"categories_sizes":[],"default_left":[0,0,0,0,0,0,0,0,0,0,0,0,0,0,0],"id":3,"left_children":[1,3,5,7,9,11,13,-1,-1,-1,-1,-1,-1,-1,-1],"loss_changes":[2.7905494E4,1.997383E3,1.692002E4,1.21396935E2,2.6330117E3,8.2339075E2,5.695465E3,0E0,0E0,0E0,0E0,0E0,0E0,0E0,0E0],"parents":[2147483647,0,0,1,1,2,2,3,3,4,4,5,5,6,6],"right_children":[2,4,6,8,10,12,14,-1,-1,-1,-1,-1,-1,-1,-1],"split_conditions":[-3.2452875E-1,-9.5473963E-1,-3.4851557E-1,-1.7786698E-1,-8.5330874E-1,-9.795504E-1,1.4908895E0,-1.8731311E-1,-4.0530353E-3,-1.802448E-1,1.19619794E-1,-1.8571888E-1,-1.8246163E-2,2.8981015E-1,-5.1162343E-2],"split_indices":[134,134,38,149,70,54,101,0,0,0,0,0,0,0,0],"split_type":[0,0,0,0,0,0,0,0,0,0,0,0,0,0,0],"sum_hessian":[2.413088E5,2.1936994E4,2.193718E5,1.0968397E4,1.0968597E4,1.0594573E4,2.0877723E5,1.0632762E4,3.3563583E2,4.3995415E3,6.569055E3,5.56121E3,5.0333633E3,2.0427133E5,4.5059053E3],"tree_param":{"num_deleted":"0","num_feature":"160","num_nodes":"15","size_leaf_vector":"0"}},{"base_weights":[-5.44755E-1,-6.213276E-1,6.4204496E-1,-6.508803E-1,5.1324356E-1,1.5205052E-1,8.739793E-1,-6.542658E-1,3.1420806E-1,8.860969E-2,7.976502E-1,-1.6048172E-1,9.294014E-1,1.0135219E0,6.030099E-1],"categories":[],"categories_nodes":[],"categories_segments":[],"categories_sizes":[],"default_left":[0,0,0,0,0,0,0,0,0,0,0,0,0,0,0],"id":4,"left_children":[1,3,5,7,9,11,13,-1,-1,-1,-1,-1,-1,-1,-1],"loss_changes":[1.7542555E4,6.0803896E3,1.3295508E3,5.77648E2,5.559408E2,9.136619E2,2.9965384E2,0E0,0E0,0E0,0E0,0E0,0E0,0E0,0E0],"parents":[2147483647,0,0,1,1,2,2,3,3,4,4,5,5,6,6],"right_children":[2,4,6,8,10,12,14,-1,-1,-1,-1,-1,-1,-1,-1],"split_conditions":[9.738149E-1,1.0645905E0,1.5884962E0,1.3553419E0,2.2199554E0,2.8531885E0,-3.8495737E-1,-1.9627975E-1,9.426242E-2,2.6582908E-2,2.3929508E-1,-4.814452E-2,2.7882043E-1,3.0405658E-1,1.8090297E-1],"split_indices":[69,113,86,118,98,101,154,0,0,0,0,0,0,0,0],"split_type":[0,0,0,0,0,0,0,0,0,0,0,0,0,0,0],"sum_hessian":[1.9303222E5,1.8133305E5,1.1699172E4,1.7673011E5,4.602937E3,3.7591284E3,7.940043E3,1.7611264E5,6.174839E2,1.8468322E3,2.7561047E3,2.6817358E3,1.0773926E3,5.2392275E3,2.7008154E3],"tree_param":{"num_deleted":"0","num_feature":"160","num_nodes":"15","size_leaf_vector":"0"}},{"base_weights":[-4.1053215E-1,6.8995965E-1,-5.842968E-1,9.0282315E-1,2.642004E-1,4.728939E-1,-6.161519E-1,9.218407E-1,-2.8659043E-1,9.154356E-1,-2.0548476E-1,6.410858E-1,-2.7023387E-1,1.5436842E-1,-6.3426566E-1],"categories":[],"categories_nodes":[],"categories_segments":[],"categories_sizes":[],"default_left":[0,0,0,0,0,0,0,0,0,0,0,0,0,0,0],"id":5,"left_children":[1,3,5,7,9,11,13,-1,-1,-1,-1,-1,-1,-1,-1],"loss_changes":[3.77265E4,2.4379705E3,5.738248E3,4.0596365E2,2.743503E3,6.231555E2,2.3085796E3,0E0,0E0,0E0,0E0,0E0,0E0,0E0,0E0],"parents":[2147483647,0,0,1,1,2,2,3,3,4,4,5,5,6,6],"right_children":[2,4,6,8,10,12,14,-1,-1,-1,-1,-1,-1,-1,-1],"split_conditions":[-2.4384217E-1,-5.504523E-1,-4.47918E-1,2.972955E-1,-5.9985834E-1,1.3826324E-2,-6.461039E-1,2.7655223E-1,-8.597713E-2,2.746307E-1,-6.164543E-2,1.9232576E-1,-8.107016E-2,4.6310525E-2,-1.902797E-1],"split_indices":[70,70,2,118,6,81,105,0,0,0,0,0,0,0,0],"split_type":[0,0,0,0,0,0,0,0,0,0,0,0,0,0,0],"sum_hessian":[1.972838E5,2.6902305E4,1.703815E5,1.7934576E4,8.9677295E3,4.9833335E3,1.6539816E5,1.7652553E4,2.8202304E2,3.7572373E3,5.2104927E3,4.0637283E3,9.196052E2,3.7987825E3,1.6159938E5],"tree_param":{"num_deleted":"0","num_feature":"160","num_nodes":"15","size_leaf_vector":"0"}},{"base_weights":[6.1159325E-1,-3.2641304E-1,6.8847805E-1,4.1130904E-2,-5.1196575E-1,-3.8579896E-1,7.380171E-1,-5.548174E-1,3.272073E-1,-6.1066467E-1,-3.1837937E-1,-5.162257E-1,-4.9500525E-2,7.5901926E-1,-1.123924E-1],"categories":[],"categories_nodes":[],"categories_segments":[],"categories_sizes":[],"default_left":[0,0,0,0,0,0,0,0,0,0,0,0,0,0,0],"id":6,"left_children":[1,3,5,7,9,11,13,-1,-1,-1,-1,-1,-1,-1,-1],"loss_changes":[1.660692E4,1.1897594E3,1.1326563E4,9.981124E2,2.2130531E2,4.115007E2,3.63369E3,0E0,0E0,0E0,0E0,0E0,0E0,0E0,0E0],"parents":[2147483647,0,0,1,1,2,2,3,3,4,4,5,5,6,6],"right_children":[2,4,6,8,10,12,14,-1,-1,-1,-1,-1,-1,-1,-1],"split_conditions":[-3.988791E-1,-4.198365E-2,-5.8921534E-1,-1.2480764E0,-8.223124E-1,-9.143954E-1,1.2610302E0,-1.6644523E-1,9.81622E-2,-1.831994E-1,-9.551381E-2,-1.5486771E-1,-1.4850158E-2,2.2770579E-1,-3.371772E-2],"split_indices":[134,5,37,38,149,37,98,0,0,0,0,0,0,0,0],"split_type":[0,0,0,0,0,0,0,0,0,0,0,0,0,0,0],"sum_hessian":[2.3026867E5,1.7444158E4,2.1282452E5,5.8524224E3,1.1591736E4,9.381231E3,2.0344328E5,1.8978734E3,3.9545488E3,7.6760103E3,3.9157263E3,6.759253E3,2.6219783E3,1.9854014E5,4.9031455E3],"tree_param":{"num_deleted":"0","num_feature":"160","num_nodes":"15","size_leaf_vector":"0"}},{"base_weights":[-4.8909125E-1,-5.602866E-1,6.143557E-1,-5.934208E-1,5.1575506E-1,4.2269254E-1,8.317115E-1,-6.008957E-1,9.20933E-2,2.2829561E-1,6.94396E-1,2.855013E-1,8.45224E-1,4.380936E-1,8.6635196E-1],"categories":[],"categories_nodes":[],"categories_segments":[],"categories_sizes":[],"default_left":[0,0,0,0,0,0,0,0,0,0,0,0,0,0,0],"id":7,"left_children":[1,3,5,7,9,11,13,-1,-1,-1,-1,-1,-1,-1,-1],"loss_changes":[1.2828999E4,5.4696104E3,4.1198782E2,7.62622E2,2.3518968E2,3.0477707E2,6.2847332E1,0E0,0E0,0E0,0E0,0E0,0E0,0E0,0E0],"parents":[2147483647,0,0,1,1,2,2,3,3,4,4,5,5,6,6],"right_children":[2,4,6,8,10,12,14,-1,-1,-1,-1,-1,-1,-1,-1],"split_conditions":[1.2868872E0,1.5353756E0,3.1903086E0,1.1727343E0,2.9807386E0,3.5428438E0,-2.7555952E0,-1.8026872E-1,2.762799E-2,6.848869E-2,2.0831881E-1,8.565039E-2,2.5356722E-1,1.314281E-1,2.599056E-1],"split_indices":[86,97,70,134,114,101,102,0,0,0,0,0,0,0,0],"split_type":[0,0,0,0,0,0,0,0,0,0,0,0,0,0,0],"sum_hessian":[1.6329602E5,1.5339908E5,9.896943E3,1.4881705E5,4.582036E3,5.260876E3,4.6360674E3,1.4721195E5,1.6050889E3,1.7570167E3,2.8250195E3,3.9726702E3,1.2882059E3,3.7610052E2,4.259967E3],"tree_param":{"num_deleted":"0","num_feature":"160","num_nodes":"15","size_leaf_vector":"0"}},{"base_weights":[-3.5845584E-1,5.0990397E-1,-5.321282E-1,7.587518E-1,2.2255573E-1,1.9147742E-1,-5.745716E-1,7.763517E-1,-1.3927433E-1,7.763092E-1,-4.3573204E-2,3.6615798E-1,-3.027486E-1,1.0682509E-1,-5.948306E-1],"categories":[],"categories_nodes":[],"categories_segments":[],"categories_sizes":[],"default_left":[0,0,0,0,0,0,0,0,0,0,0,0,0,0,0],"id":8,"left_children":[1,3,5,7,9,11,13,-1,-1,-1,-1,-1,-1,-1,-1],"loss_changes":[2.5649234E4,2.0267635E3,4.352939E3,2.4019504E2,1.9389645E3,6.7810315E2,1.8481522E3,0E0,0E0,0E0,0E0,0E0,0E0,0E0,0E0],"parents":[2147483647,0,0,1,1,2,2,3,3,4,4,5,5,6,6],"right_children":[2,4,6,8,10,12,14,-1,-1,-1,-1,-1,-1,-1,-1],"split_conditions":[-2.0715813E-1,-8.128577E-1,-2.2782998E-1,1.1414557E0,-8.6325365E-1,1.4838172E-2,-5.5882365E-1,2.3290552E-1,-4.17823E-2,2.3289277E-1,-1.3071962E-2,1.098474E-1,-9.082458E-2,3.204753E-2,-1.7844918E-1],"split_indices":[85,86,6,92,22,81,105,0,0,0,0,0,0,0,0],"split_type":[0,0,0,0,0,0,0,0,0,0,0,0,0,0,0],"sum_hessian":[1.7007356E5,2.8345326E4,1.4172823E5,1.5189421E4,1.3155905E4,7.8523433E3,1.3387589E5,1.4897588E4,2.9183344E2,4.269706E3,8.886199E3,5.8019473E3,2.0503965E3,3.8652861E3,1.3001061E5],"tree_param":{"num_deleted":"0","num_feature":"160","num_nodes":"15","size_leaf_vector":"0"}},{"base_weights":[5.1466596E-1,-2.1402287E-1,5.8753514E-1,1.1414805E-1,-4.9250075E-1,-2.5737217E-1,6.3996047E-1,-5.0162494E-1,3.0992037E-1,-3.3270612E-1,-6.0903114E-1,-4.4843283E-1,-6.7372114E-4,6.5822935E-1,-1.310236E-1],"categories":[],"categories_nodes":[],"categories_segments":[],"categories_sizes":[],"default_left":[0,0,0,0,0,0,0,0,0,0,0,0,0,0,0],"id":9,"left_children":[1,3,5,7,9,11,13,-1,-1,-1,-1,-1,-1,-1,-1],"loss_changes":[1.0943827E4,1.7124156E3,8.299361E3,1.0371355E3,1.885428E2,5.369033E2,2.484931E3,0E0,0E0,0E0,0E0,0E0,0E0,0E0,0E0],"parents":[2147483647,0,0,1,1,2,2,3,3,4,4,5,5,6,6],"right_children":[2,4,6,8,10,12,14,-1,-1,-1,-1,-1,-1,-1,-1],"split_conditions":[-3.1871516E-1,4.6338574E-3,-3.3231646E-1,-7.136565E-1,5.0559896E-1,-7.3667055E-1,1.2491617E0,-1.5048748E-1,9.2976116E-2,-9.9811845E-2,-1.8270935E-1,-1.3452986E-1,-2.0211635E-4,1.9746882E-1,-3.930708E-2],"split_indices":[149,21,21,20,21,6,117,0,0,0,0,0,0,0,0],"split_type":[0,0,0,0,0,0,0,0,0,0,0,0,0,0,0],"sum_hessian":[2.0609906E5,1.8736176E4,1.8736289E5,8.60098E3,1.0135195E4,1.0946168E4,1.7641672E5,2.074472E3,6.526509E3,4.27579E3,5.8594053E3,6.2749644E3,4.6712036E3,1.7233334E5,4.0833813E3],"tree_param":{"num_deleted":"0","num_feature":"160","num_nodes":"15","size_leaf_vector":"0"}},{"base_weights":[-4.4629535E-1,-5.3079975E-1,3.9871147E-1,-5.611624E-1,3.6919072E-1,6.4305615E-1,1.4791311E-1,-5.6954306E-1,1.3760387E-2,1.445028E-1,5.856339E-1,5.068398E-3,7.181073E-1,-1.1207984E-1,6.463786E-1],"categories":[],"categories_nodes":[],"categories_segments":[],"categories_sizes":[],"default_left":[0,0,0,0,0,0,0,0,0,0,0,0,0,0,0],"id":10,"left_children":[1,3,5,7,9,11,13,-1,-1,-1,-1,-1,-1,-1,-1],"loss_changes":[9.683568E3,3.3689731E3,7.554472E2,5.746145E2,1.956077E2,2.9899826E2,7.8873773E2,0E0,0E0,0E0,0E0,0E0,0E0,0E0,0E0],"parents":[2147483647,0,0,1,1,2,2,3,3,4,4,5,5,6,6],"right_children":[2,4,6,8,10,12,14,-1,-1,-1,-1,-1,-1,-1,-1],"split_conditions":[6.8315595E-1,1.1205463E0,-3.89535E-1,9.9388784E-1,3.6772556E0,-2.679719E0,2.011979E0,-1.7086293E-1,4.128116E-3,4.335084E-2,1.7569017E-1,1.5205195E-3,2.154322E-1,-3.3623952E-2,1.9391358E-1],"split_indices":[85,113,154,150,97,122,102,0,0,0,0,0,0,0,0],"split_type":[0,0,0,0,0,0,0,0,0,0,0,0,0,0,0],"sum_hessian":[1.356073E5,1.232792E5,1.2328094E4,1.1925628E5,4.0229277E3,6.2435967E3,6.0844976E3,1.1754287E5,1.7134072E3,1.9746877E3,2.04824E3,6.57284E2,5.5863125E3,3.9992942E3,2.0852034E3],"tree_param":{"num_deleted":"0","num_feature":"160","num_nodes":"15","size_leaf_vector":"0"}},{"base_weights":[-3.1640548E-1,4.004239E-1,-4.922281E-1,6.377455E-1,1.506465E-1,1.9055398E-1,-5.345591E-1,6.9294524E-1,4.8965836E-1,6.85958E-1,-7.239696E-2,3.1674245E-1,-4.178618E-1,1.18176855E-1,-5.569161E-1],"categories":[],"categories_nodes":[],"categories_segments":[],"categories_sizes":[],"default_left":[0,0,0,0,0,0,0,0,0,0,0,0,0,0,0],"id":11,"left_children":[1,3,5,7,9,11,13,-1,-1,-1,-1,-1,-1,-1,-1],"loss_changes":[1.8144803E4,1.680829E3,3.3415352E3,1.1852167E2,1.6497885E3,5.1835034E2,1.5886923E3,0E0,0E0,0E0,0E0,0E0,0E0,0E0,0E0],"parents":[2147483647,0,0,1,1,2,2,3,3,4,4,5,5,6,6],"right_children":[2,4,6,8,10,12,14,-1,-1,-1,-1,-1,-1,-1,-1],"split_conditions":[-1.782866E-1,-6.078597E-1,-2.8691965E-1,-1.0022593E0,-9.967032E-1,1.3760562E-1,-5.979014E-1,2.0788358E-1,1.4689751E-1,2.0578742E-1,-2.1719087E-2,9.502274E-2,-1.2535854E-1,3.545306E-2,-1.6707484E-1],"split_indices":[85,70,5,70,22,81,122,0,0,0,0,0,0,0,0],"split_type":[0,0,0,0,0,0,0,0,0,0,0,0,0,0,0],"sum_hessian":[1.4396403E5,2.8355848E4,1.1560818E5,1.4539679E4,1.381617E4,6.748823E3,1.0885935E5,1.0588948E4,3.9507312E3,4.06293E3,9.753239E3,5.589925E3,1.1588988E3,3.604953E3,1.052544E5],"tree_param":{"num_deleted":"0","num_feature":"160","num_nodes":"15","size_leaf_vector":"0"}},{"base_weights":[4.4692883E-1,-2.822177E-1,5.0669444E-1,1.08399756E-1,-4.37413E-1,-2.9364353E-1,5.5073017E-1,-4.6508056E-1,3.9312437E-1,-2.9504886E-1,-5.7272E-1,-4.1776615E-1,-6.3877255E-2,5.6250584E-1,-4.5486602E-1],"categories":[],"categories_nodes":[],"categories_segments":[],"categories_sizes":[],"default_left":[0,0,0,0,0,0,0,0,0,0,0,0,0,0,0],"id":12,"left_children":[1,3,5,7,9,11,13,-1,-1,-1,-1,-1,-1,-1,-1],"loss_changes":[7.760549E3,8.179318E2,5.800909E3,6.2669696E2,1.8582521E2,2.447928E2,1.8476243E3,0E0,0E0,0E0,0E0,0E0,0E0,0E0,0E0],"parents":[2147483647,0,0,1,1,2,2,3,3,4,4,5,5,6,6],"right_children":[2,4,6,8,10,12,14,-1,-1,-1,-1,-1,-1,-1,-1],"split_conditions":[-4.3710428E-1,-1.2370972E-1,-5.084296E-1,-7.918177E-1,3.4923357E-1,-7.3355585E-1,1.3456831E0,-1.3952418E-1,1.1793732E-1,-8.851466E-2,-1.71816E-1,-1.2532985E-1,-1.9163176E-2,1.6875176E-1,-1.3645981E-1],"split_indices":[134,5,6,10,17,21,22,0,0,0,0,0,0,0,0],"split_type":[0,0,0,0,0,0,0,0,0,0,0,0,0,0,0],"sum_hessian":[1.7808025E5,1.3490544E4,1.6458972E5,3.8359602E3,9.654584E3,8.583378E3,1.5600633E5,1.2724374E3,2.563523E3,4.7061533E3,4.9484307E3,5.5723223E3,3.0110557E3,1.5420106E5,1.805272E3],"tree_param":{"num_deleted":"0","num_feature":"160","num_nodes":"15","size_leaf_vector":"0"}},{"base_weights":[-4.0973353E-1,-4.9226785E-1,4.1556582E-1,-5.313042E-1,2.6841342E-1,2.3094775E-1,6.277249E-1,-5.401092E-1,1.4955088E-1,4.1292626E-1,-1.4316154E-1,1.0205897E-1,6.4823955E-1,1.2515512E-1,6.68983E-1],"categories":[],"categories_nodes":[],"categories_segments":[],"categories_sizes":[],"default_left":[0,0,0,0,0,0,0,0,0,0,0,0,0,0,0],"id":13,"left_children":[1,3,5,7,9,11,13,-1,-1,-1,-1,-1,-1,-1,-1],"loss_changes":[7.594935E3,3.0099937E3,3.9691272E2,5.7807837E2,2.9437875E2,2.91552E2,9.770688E1,0E0,0E0,0E0,0E0,0E0,0E0,0E0,0E0],"parents":[2147483647,0,0,1,1,2,2,3,3,4,4,5,5,6,6],"right_children":[2,4,6,8,10,12,14,-1,-1,-1,-1,-1,-1,-1,-1],"split_conditions":[8.3283514E-1,9.816112E-1,2.5405931E0,9.575471E-1,1.20270684E-1,2.3378172E0,-3.2945757E0,-1.6203277E-1,4.4865265E-2,1.2387788E-1,-4.2948462E-2,3.0617692E-2,1.9447188E-1,3.7546538E-2,2.006949E-1],"split_indices":[70,97,85,134,5,117,118,0,0,0,0,0,0,0,0],"split_type":[0,0,0,0,0,0,0,0,0,0,0,0,0,0,0],"sum_hessian":[1.11496805E5,1.0136061E5,1.0136195E4,9.641322E4,4.94739E3,5.4210005E3,4.715195E3,9.518249E4,1.2307214E3,3.661689E3,1.285701E3,4.142693E3,1.2783076E3,3.580293E2,4.3571655E3],"tree_param":{"num_deleted":"0","num_feature":"160","num_nodes":"15","size_leaf_vector":"0"}},{"base_weights":[-2.8112525E-1,3.2343668E-1,-4.589386E-1,5.7086414E-1,1.2019786E-1,2.1831569E-1,-5.013142E-1,6.29934E-1,4.1694275E-1,5.361321E-1,-6.48522E-2,3.504301E-1,-3.8118532E-1,2.2603525E-1,-5.2738E-1],"categories":[],"categories_nodes":[],"categories_segments":[],"categories_sizes":[],"default_left":[0,0,0,0,0,0,0,0,0,0,0,0,0,0,0],"id":14,"left_children":[1,3,5,7,9,11,13,-1,-1,-1,-1,-1,-1,-1,-1],"loss_changes":[1.2965141E4,1.3783469E3,2.674731E3,1.1212877E2,1.1584624E3,4.3484064E2,1.6629675E3,0E0,0E0,0E0,0E0,0E0,0E0,0E0,0E0],"parents":[2147483647,0,0,1,1,2,2,3,3,4,4,5,5,6,6],"right_children":[2,4,6,8,10,12,14,-1,-1,-1,-1,-1,-1,-1,-1],"split_conditions":[-1.9106965E-1,-8.0563074E-1,-2.5592428E-1,-1.2683802E0,-5.957251E-1,9.200187E-2,-1.0308981E0,1.889802E-1,1.2508284E-1,1.6083963E-1,-1.945566E-2,1.0512903E-1,-1.143556E-1,6.781058E-2,-1.58214E-1],"split_indices":[86,69,2,69,6,71,117,0,0,0,0,0,0,0,0],"split_type":[0,0,0,0,0,0,0,0,0,0,0,0,0,0,0],"sum_hessian":[1.206045E5,2.7410047E4,9.319445E4,1.2360405E4,1.5049643E4,5.4875356E3,8.7706914E4,8.930199E3,3.4302065E3,4.633376E3,1.0416266E4,4.496942E3,9.905936E2,3.0341157E3,8.46728E4],"tree_param":{"num_deleted":"0","num_feature":"160","num_nodes":"15","size_leaf_vector":"0"}},{"base_weights":[3.923669E-1,-3.561028E-1,4.4065705E-1,4.6552952E-2,-4.4264972E-1,-1.4706466E-1,4.9349678E-1,-4.4719854E-1,3.25139E-1,-3.4394902E-1,-5.865458E-1,-4.424844E-1,6.1582245E-2,5.181444E-1,-1.070474E-1],"categories":[],"categories_nodes":[],"categories_segments":[],"categories_sizes":[],"default_left":[0,0,0,0,0,0,0,0,0,0,0,0,0,0,0],"id":15,"left_children":[1,3,5,7,9,11,13,-1,-1,-1,-1,-1,-1,-1,-1],"loss_changes":[5.4794585E3,3.2023087E2,4.422621E3,2.2387422E2,1.072144E2,7.241631E2,1.9341293E3,0E0,0E0,0E0,0E0,0E0,0E0,0E0,0E0],"parents":[2147483647,0,0,1,1,2,2,3,3,4,4,5,5,6,6],"right_children":[2,4,6,8,10,12,14,-1,-1,-1,-1,-1,-1,-1,-1],"split_conditions":[-6.480933E-1,-2.1965699E-1,-3.1151873E-1,-8.134089E-1,1.8267984E0,-7.6480776E-1,9.428281E-1,-1.3415956E-1,9.75417E-2,-1.0318471E-1,-1.7596376E-1,-1.3274533E-1,1.8474674E-2,1.5544334E-1,-3.2114223E-2],"split_indices":[134,5,53,42,54,38,102,0,0,0,0,0,0,0,0],"split_type":[0,0,0,0,0,0,0,0,0,0,0,0,0,0,0],"sum_hessian":[1.515966E5,9.187607E3,1.4240898E5,1.6255004E3,7.562107E3,1.1747125E4,1.3066185E5,5.861079E2,1.0393925E3,4.4874688E3,3.074638E3,4.8619907E3,6.8851343E3,1.2551075E5,5.1511045E3],"tree_param":{"num_deleted":"0","num_feature":"160","num_nodes":"15","size_leaf_vector":"0"}},{"base_weights":[-3.7383106E-1,-4.6297348E-1,3.7747678E-1,-4.9890864E-1,2.6155695E-1,1.2954196E-1,5.141379E-1,-5.141695E-1,2.2177295E-1,1.5595117E-1,5.749979E-1,3.128157E-2,7.3208904E-1,5.2661574E-1,-8.5260427E-1],"categories":[],"categories_nodes":[],"categories_segments":[],"categories_sizes":[],"default_left":[0,0,0,0,0,0,0,0,0,0,0,0,0,0,0],"id":16,"left_children":[1,3,5,7,9,11,13,-1,-1,-1,-1,-1,-1,-1,-1],"loss_changes":[6.143788E3,2.1351711E3,3.296198E2,8.5938696E2,1.2819858E2,2.0476117E2,1.07416794E2,0E0,0E0,0E0,0E0,0E0,0E0,0E0,0E0],"parents":[2147483647,0,0,1,1,2,2,3,3,4,4,5,5,6,6],"right_children":[2,4,6,8,10,12,14,-1,-1,-1,-1,-1,-1,-1,-1],"split_conditions":[8.461732E-1,8.425779E-1,1.5025778E0,6.800756E-1,2.1151037E0,2.4790525E0,2.2640142E0,-1.5425086E-1,6.653189E-2,4.6785355E-2,1.7249937E-1,9.384472E-3,2.1962672E-1,1.5798473E-1,-2.557813E-1],"split_indices":[81,102,66,90,122,73,10,0,0,0,0,0,0,0,0],"split_type":[0,0,0,0,0,0,0,0,0,0,0,0,0,0,0],"sum_hessian":[9.173114E4,8.2002016E4,9.729127E3,7.8127375E4,3.8746404E3,3.45781E3,6.271317E3,7.650757E4,1.6198062E3,2.8992957E3,9.753447E2,2.973894E3,4.83916E2,6.2151895E3,5.6127514E1],"tree_param":{"num_deleted":"0","num_feature":"160","num_nodes":"15","size_leaf_vector":"0"}},{"base_weights":[-2.4975988E-1,2.55908E-1,-4.3938532E-1,1.345721E-1,6.364078E-1,1.4241542E-1,-4.8240528E-1,4.9375412E-1,-1.3143314E-1,6.564578E-1,2.937589E-1,2.9020894E-1,-3.4363168E-1,2.2726771E-1,-5.0695884E-1],"categories":[],"categories_nodes":[],"categories_segments":[],"categories_sizes":[],"default_left":[0,0,0,0,0,0,0,0,0,0,0,0,0,0,0],"id":17,"left_children":[1,3,5,7,9,11,13,-1,-1,-1,-1,-1,-1,-1,-1],"loss_changes":[9.670856E3,1.2698453E3,1.8359362E3,1.9928502E3,4.5496E1,3.6293686E2,1.1902362E3,0E0,0E0,0E0,0E0,0E0,0E0,0E0,0E0],"parents":[2147483647,0,0,1,1,2,2,3,3,4,4,5,5,6,6],"right_children":[2,4,6,8,10,12,14,-1,-1,-1,-1,-1,-1,-1,-1],"split_conditions":[-1.1818795E-1,2.4733634E-1,-2.1779542E-1,-6.778193E-1,9.036155E-2,8.136745E-2,-1.4497557E0,1.4812624E-1,-3.9429944E-2,1.9693734E-1,8.812767E-2,8.706269E-2,-1.0308951E-1,6.8180315E-2,-1.5208766E-1],"split_indices":[85,5,2,6,90,81,101,0,0,0,0,0,0,0,0],"split_type":[0,0,0,0,0,0,0,0,0,0,0,0,0,0,0],"sum_hessian":[1.008541E5,2.7505568E4,7.334854E4,2.0856186E4,6.6493823E3,5.050008E3,6.829853E4,8.873545E3,1.1982642E4,6.2809395E3,3.6844296E2,3.8727993E3,1.1772084E3,2.2837253E3,6.6014805E4],"tree_param":{"num_deleted":"0","num_feature":"160","num_nodes":"15","size_leaf_vector":"0"}},{"base_weights":[3.465162E-1,-2.81099E-1,3.9795953E-1,-5.181861E-1,-6.304781E-2,-1.12385176E-1,4.5485744E-1,-4.559634E-1,-9.163535E-1,-5.916269E-1,6.52052E-2,-4.4954032E-1,1.6550848E-2,-3.996934E-1,4.7311586E-1],"categories":[],"categories_nodes":[],"categories_segments":[],"categories_sizes":[],"default_left":[0,0,0,0,0,0,0,0,0,0,0,0,0,0,0],"id":18,"left_children":[1,3,5,7,9,11,13,-1,-1,-1,-1,-1,-1,-1,-1],"loss_changes":[4.1300703E3,5.0096725E2,3.4330261E3,1.14606026E2,3.4234207E2,5.155584E2,1.659805E3,0E0,0E0,0E0,0E0,0E0,0E0,0E0,0E0],"parents":[2147483647,0,0,1,1,2,2,3,3,4,4,5,5,6,6],"right_children":[2,4,6,8,10,12,14,-1,-1,-1,-1,-1,-1,-1,-1],"split_conditions":[-3.6303812E-1,-6.7094904E-1,-2.5691706E-1,-4.0000445E-1,-8.728648E-1,-1.0707827E0,-7.066384E-1,-1.3678902E-1,-2.7490607E-1,-1.7748807E-1,1.956156E-2,-1.348621E-1,4.9652546E-3,-1.1990803E-1,1.4193477E-1],"split_indices":[138,154,55,134,73,55,98,0,0,0,0,0,0,0,0],"split_type":[0,0,0,0,0,0,0,0,0,0,0,0,0,0,0],"sum_hessian":[1.2791447E5,9.690061E3,1.1822441E5,4.64173E3,5.0483306E3,1.1858532E4,1.06365875E5,4.0162458E3,6.254842E2,9.8503143E2,4.063299E3,3.2797688E3,8.578763E3,2.2246462E3,1.0414123E5],"tree_param":{"num_deleted":"0","num_feature":"160","num_nodes":"15","size_leaf_vector":"0"}},{"base_weights":[-3.4332296E-1,-4.4224524E-1,2.8316158E-1,-4.821704E-1,2.3220699E-1,6.9672264E-2,4.5391005E-1,-5.02845E-1,2.375516E-1,3.299503E-1,-9.355481E-2,-6.378169E-2,5.1033753E-1,4.674912E-1,-7.9098743E-1],"categories":[],"categories_nodes":[],"categories_segments":[],"categories_sizes":[],"default_left":[0,0,0,0,0,0,0,0,0,0,0,0,0,0,0],"id":19,"left_children":[1,3,5,7,9,11,13,-1,-1,-1,-1,-1,-1,-1,-1],"loss_changes":[4.6749385E3,1.754351E3,3.7496817E2,9.153246E2,1.1598268E2,2.6894272E2,9.7003784E1,0E0,0E0,0E0,0E0,0E0,0E0,0E0,0E0],"parents":[2147483647,0,0,1,1,2,2,3,3,4,4,5,5,6,6],"right_children":[2,4,6,8,10,12,14,-1,-1,-1,-1,-1,-1,-1,-1],"split_conditions":[6.9455236E-1,8.6855215E-1,1.7030945E0,6.2652105E-1,1.4914317E-1,2.2164793E0,1.088584E0,-1.508535E-1,7.126548E-2,9.89851E-2,-2.8066443E-2,-1.9134508E-2,1.5310127E-1,1.4024737E-1,-2.3729624E-1],"split_indices":[81,150,81,90,49,113,13,0,0,0,0,0,0,0,0],"split_type":[0,0,0,0,0,0,0,0,0,0,0,0,0,0,0],"sum_hessian":[7.543171E4,6.5145492E4,1.028622E4,6.150491E4,3.640584E3,4.5716396E3,5.7145796E3,5.9787758E4,1.7171495E3,2.8003418E3,8.402424E2,3.5096191E3,1.0620209E3,5.653527E3,6.1052353E1],"tree_param":{"num_deleted":"0","num_feature":"160","num_nodes":"15","size_leaf_vector":"0"}},{"base_weights":[-2.1786612E-1,2.2767143E-1,-4.1157264E-1,1.14877164E-1,6.025296E-1,2.0737408E-1,-4.5498642E-1,4.8833233E-1,-6.357776E-2,6.1514527E-1,4.4594817E-2,3.817635E-1,-2.8289703E-1,9.0292886E-2,-4.9617574E-1],"categories":[],"categories_nodes":[],"categories_segments":[],"categories_sizes":[],"default_left":[0,0,0,0,0,0,0,0,0,0,0,0,0,0,0],"id":20,"left_children":[1,3,5,7,9,11,13,-1,-1,-1,-1,-1,-1,-1,-1],"loss_changes":[7.2996E3,1.0836266E3,1.5841348E3,1.3131505E3,4.169842E1,3.305172E2,1.2372736E3,0E0,0E0,0E0,0E0,0E0,0E0,0E0,0E0],"parents":[2147483647,0,0,1,1,2,2,3,3,4,4,5,5,6,6],"right_children":[2,4,6,8,10,12,14,-1,-1,-1,-1,-1,-1,-1,-1],"split_conditions":[-1.2924676E-1,2.299499E-1,-1.982594E-1,-1.0167475E0,7.067556E-1,6.032844E-2,-4.1155535E-1,1.4649971E-1,-1.9073328E-2,1.8454358E-1,1.3378446E-2,1.1452905E-1,-8.486911E-2,2.7087867E-2,-1.4885272E-1],"split_indices":[86,2,17,22,74,71,117,0,0,0,0,0,0,0,0],"split_type":[0,0,0,0,0,0,0,0,0,0,0,0,0,0,0],"sum_hessian":[8.457847E4,2.5629283E4,5.8949188E4,1.970222E4,5.927062E3,3.863522E3,5.5085668E4,6.369966E3,1.3332255E4,5.7959067E3,1.3115555E2,2.8499988E3,1.0135231E3,3.8687344E3,5.1216934E4],"tree_param":{"num_deleted":"0","num_feature":"160","num_nodes":"15","size_leaf_vector":"0"}},{"base_weights":[3.0322686E-1,-2.8076994E-1,3.5109597E-1,-1.1106086E-1,-5.984698E-1,-1.4728974E-1,3.9357865E-1,-3.62413E-1,1.23762794E-1,-1.6533376E0,-5.441623E-1,2.0022316E-1,-3.1598482E-1,4.2516604E-1,-3.8435617E-1],"categories":[],"categories_nodes":[],"categories_segments":[],"categories_sizes":[],"default_left":[0,0,0,0,0,0,0,0,0,0,0,0,0,0,0],"id":21,"left_children":[1,3,5,7,9,11,13,-1,-1,-1,-1,-1,-1,-1,-1],"loss_changes":[3.0377908E3,4.4380756E2,2.1264482E3,3.168447E2,1.6330013E2,4.6254996E2,2.2742017E3,0E0,0E0,0E0,0E0,0E0,0E0,0E0,0E0],"parents":[2147483647,0,0,1,1,2,2,3,3,4,4,5,5,6,6],"right_children":[2,4,6,8,10,12,14,-1,-1,-1,-1,-1,-1,-1,-1],"split_conditions":[-3.3539683E-1,1.8491264E-1,-3.6738497E-1,-5.798808E-1,-6.898852E-1,-1.19248435E-1,1.1628332E0,-1.087239E-1,3.712884E-2,-4.960013E-1,-1.6324869E-1,6.006695E-2,-9.479545E-2,1.2754981E-1,-1.15306854E-1],"split_indices":[74,6,23,42,27,154,54,0,0,0,0,0,0,0,0],"split_type":[0,0,0,0,0,0,0,0,0,0,0,0,0,0,0],"sum_hessian":[1.0866108E5,8.231612E3,1.0042946E5,5.366358E3,2.8652544E3,7.8880713E3,9.254139E4,2.5916968E3,2.7746611E3,1.3884712E2,2.7264072E3,2.5777349E3,5.310336E3,8.893088E4,3.6105112E3],"tree_param":{"num_deleted":"0","num_feature":"160","num_nodes":"15","size_leaf_vector":"0"}},{"base_weights":[-3.0854493E-1,-4.0570837E-1,3.0679104E-1,-4.6187302E-1,2.6579872E-1,3.8153616E-1,-1.2380564E-1,-4.8032275E-1,3.5882607E-1,3.9987665E-1,-1.6045003E-1,2.9243308E-1,5.4749274E-1,4.592357E-1,-3.4621882E-1],"categories":[],"categories_nodes":[],"categories_segments":[],"categories_sizes":[],"default_left":[0,0,0,0,0,0,0,0,0,0,0,0,0,0,0],"id":22,"left_children":[1,3,5,7,9,11,13,-1,-1,-1,-1,-1,-1,-1,-1],"loss_changes":[3.7557178E3,2.0461351E3,2.7576456E2,7.5820276E2,2.3940036E2,1.0778373E2,1.6456844E2,0E0,0E0,0E0,0E0,0E0,0E0,0E0,0E0],"parents":[2147483647,0,0,1,1,2,2,3,3,4,4,5,5,6,6],"right_children":[2,4,6,8,10,12,14,-1,-1,-1,-1,-1,-1,-1,-1],"split_conditions":[8.172807E-1,6.0518545E-1,1.8826194E-1,1.1692581E0,-2.338572E-1,3.8309965E0,9.258933E-2,-1.4409684E-1,1.0764783E-1,1.19963E-1,-4.813501E-2,8.772993E-2,1.6424783E-1,1.3777071E-1,-1.0386565E-1],"split_indices":[118,90,26,129,154,102,148,0,0,0,0,0,0,0,0],"split_type":[0,0,0,0,0,0,0,0,0,0,0,0,0,0,0],"sum_hessian":[6.2814004E4,5.4248363E4,8.565642E3,5.0061543E4,4.18682E3,7.2987944E3,1.266847E3,4.8961285E4,1.100259E3,3.1850222E3,1.00179736E3,4.750816E3,2.5479788E3,3.4952524E2,9.1732184E2],"tree_param":{"num_deleted":"0","num_feature":"160","num_nodes":"15","size_leaf_vector":"0"}},{"base_weights":[-1.890119E-1,1.8441926E-1,-3.8874948E-1,9.147958E-2,5.5970365E-1,1.7402834E-1,-4.3903777E-1,4.2070317E-1,-5.3846523E-2,5.8118445E-1,2.2242412E-1,3.3010235E-1,-3.1100017E-1,1.2410215E-1,-4.8350656E-1],"categories":[],"categories_nodes":[],"categories_segments":[],"categories_sizes":[],"default_left":[0,0,0,0,0,0,0,0,0,0,0,0,0,0,0],"id":23,"left_children":[1,3,5,7,9,11,13,-1,-1,-1,-1,-1,-1,-1,-1],"loss_changes":[5.354311E3,8.724744E2,1.3236935E3,9.593873E2,3.5844578E1,2.905698E2,1.0751936E3,0E0,0E0,0E0,0E0,0E0,0E0,0E0,0E0],"parents":[2147483647,0,0,1,1,2,2,3,3,4,4,5,5,6,6],"right_children":[2,4,6,8,10,12,14,-1,-1,-1,-1,-1,-1,-1,-1],"split_conditions":[-1.0434441E-1,3.002128E-1,-2.0293336E-1,-9.6860987E-1,2.4511142E-1,8.631225E-2,-7.462569E-1,1.2621096E-1,-1.6153958E-2,1.7435534E-1,6.6727236E-2,9.903071E-2,-9.330005E-2,3.7230648E-2,-1.4505197E-1],"split_indices":[86,2,2,5,97,84,117,0,0,0,0,0,0,0,0],"split_type":[0,0,0,0,0,0,0,0,0,0,0,0,0,0,0],"sum_hessian":[7.178297E4,2.5014922E4,4.6768043E4,2.0050605E4,4.9643154E3,3.8360647E3,4.293198E4,6.1397173E3,1.3910889E4,4.6663975E3,2.9791833E2,2.9024307E3,9.33634E2,3.141911E3,3.9790066E4],"tree_param":{"num_deleted":"0","num_feature":"160","num_nodes":"15","size_leaf_vector":"0"}},{"base_weights":[2.625531E-1,-2.9982477E-1,3.0865225E-1,-1.7316872E-1,-6.0749125E-1,-1.3778029E-2,3.864298E-1,-4.5804888E-1,-6.20181E-2,-5.462967E-1,-1.0195918E0,2.62036E-1,-1.4507565E-1,4.224764E-1,-1.7604603E-1],"categories":[],"categories_nodes":[],"categories_segments":[],"categories_sizes":[],"default_left":[0,0,0,0,0,0,0,0,0,0,0,0,0,0,0],"id":24,"left_children":[1,3,5,7,9,11,13,-1,-1,-1,-1,-1,-1,-1,-1],"loss_changes":[2.4133499E3,2.7472763E2,2.1575444E3,1.5821512E2,5.1300034E1,6.055678E2,1.4054343E3,0E0,0E0,0E0,0E0,0E0,0E0,0E0,0E0],"parents":[2147483647,0,0,1,1,2,2,3,3,4,4,5,5,6,6],"right_children":[2,4,6,8,10,12,14,-1,-1,-1,-1,-1,-1,-1,-1],"split_conditions":[-4.4032007E-1,5.779714E-1,-1.7628388E-1,-5.813914E-1,-2.4468903E-1,-1.418467E-1,1.1948566E0,-1.3741466E-1,-1.8605432E-2,-1.6388902E-1,-3.0587757E-1,7.86108E-2,-4.3522697E-2,1.2674293E-1,-5.281381E-2],"split_indices":[138,58,54,75,134,153,113,0,0,0,0,0,0,0,0],"split_type":[0,0,0,0,0,0,0,0,0,0,0,0,0,0,0],"sum_hessian":[9.308453E4,7.0518145E3,8.603272E4,4.9964893E3,2.0553252E3,1.6720004E4,6.931272E4,1.4014467E3,3.5950427E3,1.7916075E3,2.6371777E2,5.392049E3,1.1327955E4,6.513852E4,4.1741943E3],"tree_param":{"num_deleted":"0","num_feature":"160","num_nodes":"15","size_leaf_vector":"0"}},{"base_weights":[-2.7231693E-1,-3.9409053E-1,2.2412777E-1,-4.4745743E-1,2.4896222E-1,3.7036088E-1,-1.484404E-2,-4.798114E-1,7.178422E-2,6.1812115E-1,1.9102249E-1,2.415314E-1,4.962339E-1,2.7094743E-1,-2.5164804E-1],"categories":[],"categories_nodes":[],"categories_segments":[],"categories_sizes":[],"default_left":[0,0,0,0,0,0,0,0,0,0,0,0,0,0,0],"id":25,"left_children":[1,3,5,7,9,11,13,-1,-1,-1,-1,-1,-1,-1,-1],"loss_changes":[3.2018318E3,1.4596443E3,3.6458536E2,6.5977325E2,6.960423E1,1.04835754E2,2.6816885E2,0E0,0E0,0E0,0E0,0E0,0E0,0E0,0E0],"parents":[2147483647,0,0,1,1,2,2,3,3,4,4,5,5,6,6],"right_children":[2,4,6,8,10,12,14,-1,-1,-1,-1,-1,-1,-1,-1],"split_conditions":[5.651807E-1,8.0672544E-1,2.924556E-1,8.470163E-1,2.3344894E-1,4.14977E-1,-1.7614083E-1,-1.4394343E-1,2.1535266E-2,1.8543635E-1,5.7306748E-2,7.245942E-2,1.4887019E-1,8.128423E-2,-7.5494416E-2],"split_indices":[81,150,18,54,148,122,138,0,0,0,0,0,0,0,0],"split_type":[0,0,0,0,0,0,0,0,0,0,0,0,0,0,0],"sum_hessian":[5.2960773E4,4.252899E4,1.0431787E4,3.9270258E4,3.258732E3,6.471287E3,3.9604995E3,3.696692E4,2.3033352E3,4.4076447E2,2.8179675E3,3.1995286E3,3.2717585E3,1.7945582E3,2.1659414E3],"tree_param":{"num_deleted":"0","num_feature":"160","num_nodes":"15","size_leaf_vector":"0"}},{"base_weights":[-1.6264983E-1,1.5355341E-1,-3.6817846E-1,4.789336E-1,6.670362E-2,1.3266245E-1,-4.2534167E-1,4.4791755E-1,9.0781456E-1,-1.0966569E-2,4.8925832E-1,3.207583E-1,-2.0683612E-1,8.3471216E-2,-4.7988722E-1],"categories":[],"categories_nodes":[],"categories_segments":[],"categories_sizes":[],"default_left":[0,0,0,0,0,0,0,0,0,0,0,0,0,0,0],"id":26,"left_children":[1,3,5,7,9,11,13,-1,-1,-1,-1,-1,-1,-1,-1],"loss_changes":[4.002685E3,6.856207E2,1.0687307E3,6.75893E1,6.285837E2,2.4430362E2,9.2988794E2,0E0,0E0,0E0,0E0,0E0,0E0,0E0,0E0],"parents":[2147483647,0,0,1,1,2,2,3,3,4,4,5,5,6,6],"right_children":[2,4,6,8,10,12,14,-1,-1,-1,-1,-1,-1,-1,-1],"split_conditions":[-6.8791434E-2,-6.2490183E-1,-1.6089062E-1,-1.4908509E-1,4.772672E-1,1.923461E-2,-4.0488917E-1,1.3437527E-1,2.7234438E-1,-3.2899708E-3,1.467775E-1,9.62275E-2,-6.2050838E-2,2.5041366E-2,-1.4396617E-1],"split_indices":[85,58,2,69,22,81,105,0,0,0,0,0,0,0,0],"split_type":[0,0,0,0,0,0,0,0,0,0,0,0,0,0,0],"sum_hessian":[6.1588492E4,2.4261986E4,3.7326508E4,5.1106333E3,1.9151354E4,3.8236768E3,3.350283E4,4.767872E3,3.4276117E2,1.6178535E4,2.972818E3,2.4605103E3,1.3631666E3,3.2437634E3,3.0259066E4],"tree_param":{"num_deleted":"0","num_feature":"160","num_nodes":"15","size_leaf_vector":"0"}},{"base_weights":[2.2500198E-1,-3.7106657E-1,2.6345974E-1,8.704614E-2,-4.6103972E-1,-3.0942421E-2,3.4332192E-1,-1.7464204E-1,4.67773E-1,-3.4473953E-1,-5.5382013E-1,2.6167178E-1,-1.869203E-1,3.836061E-1,-1.6134582E-1],"categories":[],"categories_nodes":[],"categories_segments":[],"categories_sizes":[],"default_left":[0,0,0,0,0,0,0,0,0,0,0,0,0,0,0],"id":27,"left_children":[1,3,5,7,9,11,13,-1,-1,-1,-1,-1,-1,-1,-1],"loss_changes":[1.8456355E3,2.0118059E2,1.7781871E3,7.997896E1,4.3823154E1,7.3666046E2,1.2095349E3,0E0,0E0,0E0,0E0,0E0,0E0,0E0,0E0],"parents":[2147483647,0,0,1,1,2,2,3,3,4,4,5,5,6,6],"right_children":[2,4,6,8,10,12,14,-1,-1,-1,-1,-1,-1,-1,-1],"split_conditions":[-1.0189714E0,-2.567168E-1,-1.5115647E-1,-1.0173635E0,7.2020715E-1,-2.7380663E-1,9.620332E-1,-5.2392613E-2,1.4033191E-1,-1.0342186E-1,-1.6614604E-1,7.850154E-2,-5.607609E-2,1.1508184E-1,-4.840375E-2],"split_indices":[150,22,21,151,33,150,133,0,0,0,0,0,0,0,0],"split_type":[0,0,0,0,0,0,0,0,0,0,0,0,0,0,0],"sum_hessian":[8.0507695E4,4.8789355E3,7.562876E4,8.0092596E2,4.0780095E3,1.6138131E4,5.9490625E4,4.7498904E2,3.2593692E2,1.8117267E3,2.2662827E3,5.611079E3,1.0527052E4,5.5093152E4,4.397473E3],"tree_param":{"num_deleted":"0","num_feature":"160","num_nodes":"15","size_leaf_vector":"0"}},{"base_weights":[-2.4250884E-1,-3.7146333E-1,1.9592814E-1,-4.4037828E-1,2.8179574E-1,7.857147E-2,4.0891123E-1,-4.6231845E-1,3.556142E-1,2.6269075E-1,2.1909728E0,-1.8641645E-2,4.822679E-1,-1.9402926E-1,4.4815722E-1],"categories":[],"categories_nodes":[],"categories_segments":[],"categories_sizes":[],"default_left":[0,0,0,0,0,0,0,0,0,0,0,0,0,0,0],"id":28,"left_children":[1,3,5,7,9,11,13,-1,-1,-1,-1,-1,-1,-1,-1],"loss_changes":[2.5467903E3,1.5671089E3,2.5586859E2,5.5003925E2,1.2059876E2,2.5910696E2,8.614803E1,0E0,0E0,0E0,0E0,0E0,0E0,0E0,0E0],"parents":[2147483647,0,0,1,1,2,2,3,3,4,4,5,5,6,6],"right_children":[2,4,6,8,10,12,14,-1,-1,-1,-1,-1,-1,-1,-1],"split_conditions":[4.5657438E-1,5.690374E-1,2.0274467E0,8.503694E-1,1.3787794E0,1.2143774E0,-3.938304E0,-1.3869554E-1,1.0668426E-1,7.880723E-2,6.572919E-1,-5.592494E-3,1.4468037E-1,-5.820878E-2,1.3444717E-1],"split_indices":[70,134,81,101,72,122,118,0,0,0,0,0,0,0,0],"split_type":[0,0,0,0,0,0,0,0,0,0,0,0,0,0,0],"sum_hessian":[4.5043023E4,3.480594E4,1.0237081E4,3.1484807E4,3.3211345E3,6.601133E3,3.635948E3,3.0640668E4,8.4413855E2,3.2893557E3,3.1778769E1,5.320799E3,1.2803342E3,2.2196292E2,3.413985E3],"tree_param":{"num_deleted":"0","num_feature":"160","num_nodes":"15","size_leaf_vector":"0"}},{"base_weights":[-1.3314834E-1,1.4319032E-1,-3.3676222E-1,4.793932E-1,7.583149E-2,-7.7554164E-3,-4.4377327E-1,4.873339E-1,-4.0078032E-1,3.0421251E-3,4.4994152E-1,5.9296185E-1,-8.482092E-2,3.4376662E-2,-4.8072556E-1],"categories":[],"categories_nodes":[],"categories_segments":[],"categories_sizes":[],"default_left":[0,0,0,0,0,0,0,0,0,0,0,0,0,0,0],"id":29,"left_children":[1,3,5,7,9,11,13,-1,-1,-1,-1,-1,-1,-1,-1],"loss_changes":[3.038875E3,5.1885364E2,1.0948043E3,2.6923447E1,5.1983307E2,3.5340982E2,4.1459836E2,0E0,0E0,0E0,0E0,0E0,0E0,0E0,0E0],"parents":[2147483647,0,0,1,1,2,2,3,3,4,4,5,5,6,6],"right_children":[2,4,6,8,10,12,14,-1,-1,-1,-1,-1,-1,-1,-1],"split_conditions":[-6.400685E-2,-1.4175024E0,-8.036713E-2,7.1203893E-1,3.0362982E-1,-5.0582606E-1,-1.1725335E-1,1.4620018E-1,-1.202341E-1,9.1263757E-4,1.3498247E-1,1.7788856E-1,-2.5446277E-2,1.0312999E-2,-1.4421767E-1],"split_indices":[81,37,101,105,17,9,21,0,0,0,0,0,0,0,0],"split_type":[0,0,0,0,0,0,0,0,0,0,0,0,0,0,0],"sum_hessian":[5.400685E4,2.291186E4,3.1094992E4,3.8232173E3,1.9088643E4,7.6318486E3,2.3463145E4,3.789476E3,3.374128E1,1.5980397E4,3.108245E3,8.6699805E2,6.7648506E3,1.6831992E3,2.1779943E4],"tree_param":{"num_deleted":"0","num_feature":"160","num_nodes":"15","size_leaf_vector":"0"}},{"base_weights":[1.90464E-1,2.274063E-1,-3.8203272E-1,-1.121485E-2,3.250215E-1,-4.8724622E-1,-7.483019E-2,3.0934712E-2,-5.201653E-1,3.786697E-1,-1.2935048E-1,-6.025311E-1,-3.8663965E-1,-3.8841373E-1,2.3908629E-1],"categories":[],"categories_nodes":[],"categories_segments":[],"categories_sizes":[],"default_left":[0,0,0,0,0,0,0,0,0,0,0,0,0,0,0],"id":30,"left_children":[1,3,5,7,9,11,13,-1,-1,-1,-1,-1,-1,-1,-1],"loss_changes":[1.4958384E3,1.5475225E3,1.3854022E2,4.137991E2,1.1493682E3,3.680586E1,1.07879776E2,0E0,0E0,0E0,0E0,0E0,0E0,0E0,0E0],"parents":[2147483647,0,0,1,1,2,2,3,3,4,4,5,5,6,6],"right_children":[2,4,6,8,10,12,14,-1,-1,-1,-1,-1,-1,-1,-1],"split_conditions":[9.3293566E-1,-1.13982245E-1,-1.2222199E-1,4.4159788E-1,9.49933E-1,2.5746435E-1,1.6493507E-1,9.280414E-3,-1.5604961E-1,1.1360092E-1,-3.8805146E-2,-1.8075933E-1,-1.159919E-1,-1.1652412E-1,7.172589E-2],"split_indices":[34,34,150,5,118,71,61,0,0,0,0,0,0,0,0],"split_type":[0,0,0,0,0,0,0,0,0,0,0,0,0,0,0],"sum_hessian":[7.072232E4,6.643592E4,4.2863994E3,1.928775E4,4.7148168E4,3.1924385E3,1.093961E3,1.781344E4,1.4743099E3,4.2169355E4,4.9788145E3,1.4853685E3,1.70707E3,5.4715204E2,5.46809E2],"tree_param":{"num_deleted":"0","num_feature":"160","num_nodes":"15","size_leaf_vector":"0"}},{"base_weights":[-2.1516985E-1,-3.4839568E-1,1.6882057E-1,-4.2242295E-1,2.0595473E-1,9.8752625E-2,4.94559E-1,-4.4971886E-1,2.579992E-1,5.0774276E-1,7.943519E-2,3.1669453E-1,-7.6287135E-2,5.1347476E-1,-1.0042548E0],"categories":[],"categories_nodes":[],"categories_segments":[],"categories_sizes":[],"default_left":[0,0,0,0,0,0,0,0,0,0,0,0,0,0,0],"id":31,"left_children":[1,3,5,7,9,11,13,-1,-1,-1,-1,-1,-1,-1,-1],"loss_changes":[1.9816941E3,1.180256E3,2.2769617E2,4.7132483E2,1.2934494E2,3.1334567E2,5.058917E1,0E0,0E0,0E0,0E0,0E0,0E0,0E0,0E0],"parents":[2147483647,0,0,1,1,2,2,3,3,4,4,5,5,6,6],"right_children":[2,4,6,8,10,12,14,-1,-1,-1,-1,-1,-1,-1,-1],"split_conditions":[4.2742628E-1,7.694425E-1,2.8963194E0,5.932054E-1,-2.1386193E-2,-3.8831812E-1,1.129489E0,-1.3491566E-1,7.739977E-2,1.5232283E-1,2.383056E-2,9.5008366E-2,-2.2886142E-2,1.5404244E-1,-3.0127645E-1],"split_indices":[70,97,117,134,73,154,45,0,0,0,0,0,0,0,0],"split_type":[0,0,0,0,0,0,0,0,0,0,0,0,0,0,0],"sum_hessian":[3.873501E4,2.8757621E4,9.977391E3,2.5369982E4,3.3876384E3,8.212207E3,1.7651833E3,2.4391814E4,9.7816656E2,9.9979834E2,2.38784E3,3.6574763E3,4.554731E3,1.7438326E3,2.1350643E1],"tree_param":{"num_deleted":"0","num_feature":"160","num_nodes":"15","size_leaf_vector":"0"}},{"base_weights":[-1.068893E-1,1.1923649E-1,-3.1970248E-1,5.21972E-1,6.946101E-2,1.9494899E-2,-4.3099502E-1,4.641569E-1,1.2244455E0,9.286932E-3,4.417282E-1,6.264087E-1,-5.3887337E-2,-1.3096597E-2,-4.819126E-1],"categories":[],"categories_nodes":[],"categories_segments":[],"categories_sizes":[],"default_left":[0,0,0,0,0,0,0,0,0,0,0,0,0,0,0],"id":32,"left_children":[1,3,5,7,9,11,13,-1,-1,-1,-1,-1,-1,-1,-1],"loss_changes":[2.3120613E3,4.669315E2,9.3436536E2,1.03491455E2,4.6443707E2,2.7240494E2,3.965468E2,0E0,0E0,0E0,0E0,0E0,0E0,0E0,0E0],"parents":[2147483647,0,0,1,1,2,2,3,3,4,4,5,5,6,6],"right_children":[2,4,6,8,10,12,14,-1,-1,-1,-1,-1,-1,-1,-1],"split_conditions":[-4.4936225E-2,-7.5494486E-1,-9.233193E-2,-2.712298E-1,4.5277494E-1,-5.04716E-1,-1.256514E-1,1.3924707E-1,3.6733365E-1,2.7860797E-3,1.3251847E-1,1.8792261E-1,-1.6166203E-2,-3.9289794E-3,-1.445738E-1],"split_indices":[81,59,105,53,17,26,5,0,0,0,0,0,0,0,0],"split_type":[0,0,0,0,0,0,0,0,0,0,0,0,0,0,0],"sum_hessian":[4.804349E4,2.32934E4,2.4750088E4,2.561193E3,2.0732207E4,6.114658E3,1.863543E4,2.367965E3,1.932279E2,1.7848209E4,2.8839983E3,6.587636E2,5.4558945E3,2.0241105E3,1.6611318E4],"tree_param":{"num_deleted":"0","num_feature":"160","num_nodes":"15","size_leaf_vector":"0"}},{"base_weights":[1.5896378E-1,-3.7092164E-1,1.9315419E-1,-1.4052454E-1,-5.204641E-1,-9.373488E-2,2.6488402E-1,-1.3006519E-3,-5.767512E-1,-5.371861E-1,7.953396E-1,1.5769362E-1,-2.5283238E-1,-3.5930517E-1,3.0500466E-1],"categories":[],"categories_nodes":[],"categories_segments":[],"categories_sizes":[],"default_left":[0,0,0,0,0,0,0,0,0,0,0,0,0,0,0],"id":33,"left_children":[1,3,5,7,9,11,13,-1,-1,-1,-1,-1,-1,-1,-1],"loss_changes":[1.1370261E3,1.3099716E2,1.2131901E3,9.101904E1,5.1177063E1,4.717528E2,1.1811729E3,0E0,0E0,0E0,0E0,0E0,0E0,0E0,0E0],"parents":[2147483647,0,0,1,1,2,2,3,3,4,4,5,5,6,6],"right_children":[2,4,6,8,10,12,14,-1,-1,-1,-1,-1,-1,-1,-1],"split_conditions":[-6.765185E-1,1.14075616E-1,-2.0518784E-1,1.1153312E-1,3.3853245E0,-1.0454659E-1,-3.742953E-1,-3.901956E-4,-1.7302535E-1,-1.6115583E-1,2.3860188E-1,4.730809E-2,-7.584972E-2,-1.0779156E-1,9.15014E-2],"split_indices":[154,38,23,7,144,154,119,0,0,0,0,0,0,0,0],"split_type":[0,0,0,0,0,0,0,0,0,0,0,0,0,0,0],"sum_hessian":[6.275522E4,3.8031948E3,5.8952027E4,1.4976835E3,2.3055112E3,1.1791339E4,4.7160688E4,1.1360958E3,3.6158762E2,2.2771636E3,2.8347752E1,4.569683E3,7.2216553E3,2.8477627E3,4.4312926E4],"tree_param":{"num_deleted":"0","num_feature":"160","num_nodes":"15","size_leaf_vector":"0"}},{"base_weights":[-1.8945792E-1,-2.945631E-1,2.3902634E-1,-3.724164E-1,1.1663324E-1,7.45691E-2,3.6591896E-1,-4.3289492E-1,1.2969196E-1,2.632651E-1,-1.13523155E-1,-1.7081387E-2,3.9274442E-1,7.26701E-1,2.7611095E-1],"categories":[],"categories_nodes":[],"categories_segments":[],"categories_sizes":[],"default_left":[0,0,0,0,0,0,0,0,0,0,0,0,0,0,0],"id":34,"left_children":[1,3,5,7,9,11,13,-1,-1,-1,-1,-1,-1,-1,-1],"loss_changes":[1.5157437E3,8.652257E2,1.3832585E2,6.9010657E2,1.4525233E2,8.424534E1,1.2104556E2,0E0,0E0,0E0,0E0,0E0,0E0,0E0,0E0],"parents":[2147483647,0,0,1,1,2,2,3,3,4,4,5,5,6,6],"right_children":[2,4,6,8,10,12,14,-1,-1,-1,-1,-1,-1,-1,-1],"split_conditions":[8.9956945E-1,5.257978E-1,8.5247225E-1,5.544309E-1,1.274776E-1,3.658679E0,2.3363586E-1,-1.2986848E-1,3.8907588E-2,7.897954E-2,-3.4056947E-2,-5.124416E-3,1.1782333E-1,2.1801032E-1,8.283329E-2],"split_indices":[65,117,83,53,50,70,84,0,0,0,0,0,0,0,0],"split_type":[0,0,0,0,0,0,0,0,0,0,0,0,0,0,0],"sum_hessian":[3.3653766E4,2.7024977E4,6.6287876E3,2.272287E4,4.3021084E3,2.8877505E3,3.7410374E3,2.0280266E4,2.4426023E3,2.627801E3,1.6743074E3,2.2426895E3,6.45061E2,7.442202E2,2.9968171E3],"tree_param":{"num_deleted":"0","num_feature":"160","num_nodes":"15","size_leaf_vector":"0"}},{"base_weights":[-8.306732E-2,7.4473456E-2,-3.4141865E-1,4.0740845E-1,8.598552E-3,1.1321369E-1,-4.6023864E-1,5.3070533E-1,2.8266364E-1,-7.158429E-2,2.9676995E-1,2.586356E-1,-2.5651917E-1,4.284826E-1,-4.6966848E-1],"categories":[],"categories_nodes":[],"categories_segments":[],"categories_sizes":[],"default_left":[0,0,0,0,0,0,0,0,0,0,0,0,0,0,0],"id":35,"left_children":[1,3,5,7,9,11,13,-1,-1,-1,-1,-1,-1,-1,-1],"loss_changes":[1.7638422E3,5.90432E2,8.8683356E2,6.8244255E1,5.193456E2,1.8299399E2,1.0927156E2,0E0,0E0,0E0,0E0,0E0,0E0,0E0,0E0],"parents":[2147483647,0,0,1,1,2,2,3,3,4,4,5,5,6,6],"right_children":[2,4,6,8,10,12,14,-1,-1,-1,-1,-1,-1,-1,-1],"split_conditions":[-1.9471215E-2,-5.338641E-1,-7.387452E-2,-1.821528E-1,2.5455755E-1,8.65583E-2,-3.5211283E-1,1.592116E-1,8.4799096E-2,-2.1475289E-2,8.903099E-2,7.759069E-2,-7.695575E-2,1.2854478E-1,-1.4090055E-1],"split_indices":[118,10,34,91,22,103,59,0,0,0,0,0,0,0,0],"split_type":[0,0,0,0,0,0,0,0,0,0,0,0,0,0,0],"sum_hessian":[4.3335098E4,2.6920117E4,1.641498E4,4.4457734E3,2.2474344E4,3.4012124E3,1.3013768E4,2.2342256E3,2.2115479E3,1.7582746E4,4.891596E3,2.4413071E3,9.5990515E2,1.3616725E2,1.2877601E4],"tree_param":{"num_deleted":"0","num_feature":"160","num_nodes":"15","size_leaf_vector":"0"}},{"base_weights":[1.2910116E-1,1.5678822E-1,-4.5215136E-1,-3.198419E-2,2.5117236E-1,-5.2113235E-1,1.5692002E-1,1.9052479E-1,-1.8714856E-1,-2.3369655E-1,3.0862495E-1,-1.1401402E0,-4.9519262E-1,-4.1383073E-2,9.8441356E-1],"categories":[],"categories_nodes":[],"categories_segments":[],"categories_sizes":[],"default_left":[0,0,0,0,0,0,0,0,0,0,0,0,0,0,0],"id":36,"left_children":[1,3,5,7,9,11,13,-1,-1,-1,-1,-1,-1,-1,-1],"loss_changes":[9.085283E2,9.600653E2,1.079284E2,6.2018024E2,1.0007784E3,3.646247E1,4.301867E1,0E0,0E0,0E0,0E0,0E0,0E0,0E0,0E0],"parents":[2147483647,0,0,1,1,2,2,3,3,4,4,5,5,6,6],"right_children":[2,4,6,8,10,12,14,-1,-1,-1,-1,-1,-1,-1,-1],"split_conditions":[8.9878553E-1,-1.0425858E-1,4.7683805E-1,-2.2800927E-1,-2.824927E-1,-3.2000834E-1,1.3366804E0,5.715744E-2,-5.614457E-2,-7.0108965E-2,9.2587486E-2,-3.4204206E-1,-1.485578E-1,-1.2414922E-2,2.953241E-1],"split_indices":[6,6,103,133,151,27,64,0,0,0,0,0,0,0,0],"split_type":[0,0,0,0,0,0,0,0,0,0,0,0,0,0,0],"sum_hessian":[5.6448863E4,5.3882965E4,2.565901E3,1.796095E4,3.5922016E4,2.3049912E3,2.609096E2,7.379032E3,1.0581917E4,3.8051895E3,3.2116826E4,9.097895E1,2.2140122E3,2.112379E2,4.967171E1],"tree_param":{"num_deleted":"0","num_feature":"160","num_nodes":"15","size_leaf_vector":"0"}},{"base_weights":[-1.5775466E-1,-2.9517302E-1,1.3671327E-1,-3.723096E-1,1.7808367E-1,3.040779E-1,-3.7676513E-2,-4.3317035E-1,1.7087094E-1,3.4297514E-1,2.8818997E-2,2.5334913E-1,5.7031304E-1,1.4179961E-1,-2.2070637E-1],"categories":[],"categories_nodes":[],"categories_segments":[],"categories_sizes":[],"default_left":[0,0,0,0,0,0,0,0,0,0,0,0,0,0,0],"id":37,"left_children":[1,3,5,7,9,11,13,-1,-1,-1,-1,-1,-1,-1,-1],"loss_changes":[1.2089723E3,7.4368713E2,2.7747784E2,5.7911273E2,7.0271416E1,6.537373E1,1.5299445E2,0E0,0E0,0E0,0E0,0E0,0E0,0E0,0E0],"parents":[2147483647,0,0,1,1,2,2,3,3,4,4,5,5,6,6],"right_children":[2,4,6,8,10,12,14,-1,-1,-1,-1,-1,-1,-1,-1],"split_conditions":[4.3567938E-1,6.234979E-1,1.6452499E-1,6.731214E-1,3.5841897E-2,5.922369E0,-4.444985E-2,-1.299511E-1,5.1261287E-2,1.0289255E-1,8.645699E-3,7.600474E-2,1.7109391E-1,4.2539887E-2,-6.621192E-2],"split_indices":[81,133,18,54,73,97,138,0,0,0,0,0,0,0,0],"split_type":[0,0,0,0,0,0,0,0,0,0,0,0,0,0,0],"sum_hessian":[2.987477E4,2.0369158E4,9.505609E3,1.7514643E4,2.8545156E3,4.8501245E3,4.655485E3,1.5750121E4,1.7645223E3,1.3556464E3,1.4988693E3,4.0755215E3,7.746032E2,2.3506755E3,2.3048093E3],"tree_param":{"num_deleted":"0","num_feature":"160","num_nodes":"15","size_leaf_vector":"0"}},{"base_weights":[-6.512787E-2,7.485615E-2,-3.1007943E-1,3.953276E-1,2.1839013E-2,1.3794051E-1,-4.3576133E-1,1.19305596E-1,4.766412E-1,-4.77639E-2,2.5807318E-1,2.685697E-1,-3.5465652E-1,2.9857075E-1,-4.5906666E-1],"categories":[],"categories_nodes":[],"categories_segments":[],"categories_sizes":[],"default_left":[0,0,0,0,0,0,0,0,0,0,0,0,0,0,0],"id":38,"left_children":[1,3,5,7,9,11,13,-1,-1,-1,-1,-1,-1,-1,-1],"loss_changes":[1.3555886E3,4.274297E2,8.0958105E2,8.009369E1,3.5496573E2,2.028081E2,1.9228085E2,0E0,0E0,0E0,0E0,0E0,0E0,0E0,0E0],"parents":[2147483647,0,0,1,1,2,2,3,3,4,4,5,5,6,6],"right_children":[2,4,6,8,10,12,14,-1,-1,-1,-1,-1,-1,-1,-1],"split_conditions":[-2.0524072E-2,-6.395884E-1,-8.542542E-2,-4.8807627E-1,2.4800201E-1,2.9956144E-1,-3.3781534E-1,3.579168E-2,1.4299236E-1,-1.432917E-2,7.7421956E-2,8.0570914E-2,-1.0639696E-1,8.957123E-2,-1.3772E-1],"split_indices":[117,26,17,149,22,101,73,0,0,0,0,0,0,0,0],"split_type":[0,0,0,0,0,0,0,0,0,0,0,0,0,0,0],"sum_hessian":[3.9532188E4,2.5156523E4,1.4375663E4,3.5700806E3,2.1586443E4,3.1492808E3,1.1226382E4,8.129521E2,2.7571284E3,1.667438E4,4.9120625E3,2.489546E3,6.5973474E2,3.4496625E2,1.0881416E4],"tree_param":{"num_deleted":"0","num_feature":"160","num_nodes":"15","size_leaf_vector":"0"}},{"base_weights":[1.0324614E-1,1.3388982E-1,-3.7161705E-1,-6.611827E-2,2.0795153E-1,-4.0656665E-1,4.7087142E-1,1.3187617E-1,-2.0701945E-1,2.3594767E-1,-4.641774E-1,-4.895469E-1,-1.4917307E-1,-3.945906E-1,9.271806E-1],"categories":[],"categories_nodes":[],"categories_segments":[],"categories_sizes":[],"default_left":[0,0,0,0,0,0,0,0,0,0,0,0,0,0,0],"id":39,"left_children":[1,3,5,7,9,11,13,-1,-1,-1,-1,-1,-1,-1,-1],"loss_changes":[7.511487E2,7.182658E2,9.233065E1,3.6558917E2,6.6595825E2,6.411231E1,4.97722E1,0E0,0E0,0E0,0E0,0E0,0E0,0E0,0E0],"parents":[2147483647,0,0,1,1,2,2,3,3,4,4,5,5,6,6],"right_children":[2,4,6,8,10,12,14,-1,-1,-1,-1,-1,-1,-1,-1],"split_conditions":[1.0657434E0,-1.5875535E-1,1.3609991E0,-9.979348E-2,1.1232901E0,3.0103678E-1,-2.5014788E-1,3.956285E-2,-6.210584E-2,7.07843E-2,-1.3925323E-1,-1.4686407E-1,-4.475192E-2,-1.1837718E-1,2.781542E-1],"split_indices":[49,23,28,154,22,97,116,0,0,0,0,0,0,0,0],"split_type":[0,0,0,0,0,0,0,0,0,0,0,0,0,0,0],"sum_hessian":[5.1615383E4,4.848715E4,3.128236E3,1.3102681E4,3.538447E4,3.0041309E3,1.24105255E2,5.447672E3,7.6550083E3,3.397016E4,1.4143075E3,2.2710671E3,7.330637E2,4.2890995E1,8.121426E1],"tree_param":{"num_deleted":"0","num_feature":"160","num_nodes":"15","size_leaf_vector":"0"}},{"base_weights":[-1.2674648E-1,-2.4981132E-1,1.7766197E-1,-3.5887235E-1,1.2546954E-1,2.7433538E-1,-1.17047474E-1,-4.0827438E-1,3.7469766E-1,-2.6394185E-1,3.0220792E-1,1.8473081E-1,3.9879957E-1,2.953942E-1,-2.5493538E-1],"categories":[],"categories_nodes":[],"categories_segments":[],"categories_sizes":[],"default_left":[0,0,0,0,0,0,0,0,0,0,0,0,0,0,0],"id":40,"left_children":[1,3,5,7,9,11,13,-1,-1,-1,-1,-1,-1,-1,-1],"loss_changes":[1.0116478E3,7.870957E2,2.215345E2,5.401296E2,2.9814276E2,6.5219284E1,1.093274E2,0E0,0E0,0E0,0E0,0E0,0E0,0E0,0E0],"parents":[2147483647,0,0,1,1,2,2,3,3,4,4,5,5,6,6],"right_children":[2,4,6,8,10,12,14,-1,-1,-1,-1,-1,-1,-1,-1],"split_conditions":[5.258531E-1,5.755605E-1,1.20299295E-1,4.6618742E-1,-2.3672514E0,4.8719782E-1,5.4661706E-2,-1.2248232E-1,1.124093E-1,-7.918256E-2,9.0662375E-2,5.5419248E-2,1.1963987E-1,8.861826E-2,-7.648062E-2],"split_indices":[101,37,26,134,101,83,148,0,0,0,0,0,0,0,0],"split_type":[0,0,0,0,0,0,0,0,0,0,0,0,0,0,0],"sum_hessian":[2.7002473E4,1.9228887E4,7.773586E3,1.4899082E4,4.329804E3,5.8535254E3,1.9200605E3,1.3959432E4,9.396497E2,1.351507E3,2.9782974E3,3.40481E3,2.4487153E3,4.807948E2,1.4392657E3],"tree_param":{"num_deleted":"0","num_feature":"160","num_nodes":"15","size_leaf_vector":"0"}},{"base_weights":[-5.2063372E-2,9.6799225E-2,-2.4198458E-1,3.882384E-1,4.6056222E-2,2.4664365E-2,-3.8213864E-1,3.080125E-1,7.325003E-1,-1.11372426E-1,1.5887871E-1,4.4126648E-1,-6.463156E-2,-8.39266E-3,-4.58234E-1],"categories":[],"categories_nodes":[],"categories_segments":[],"categories_sizes":[],"default_left":[0,0,0,0,0,0,0,0,0,0,0,0,0,0,0],"id":41,"left_children":[1,3,5,7,9,11,13,-1,-1,-1,-1,-1,-1,-1,-1],"loss_changes":[1.0353661E3,3.0359143E2,6.0137885E2,8.385467E1,3.1060892E2,2.063023E2,2.999736E2,0E0,0E0,0E0,0E0,0E0,0E0,0E0,0E0],"parents":[2147483647,0,0,1,1,2,2,3,3,4,4,5,5,6,6],"right_children":[2,4,6,8,10,12,14,-1,-1,-1,-1,-1,-1,-1,-1],"split_conditions":[-3.9495513E-2,-1.9490533E-1,-8.049111E-2,1.620626E-1,-9.2164084E-2,-2.7778387E0,-1.0614686E-1,9.240375E-2,2.197501E-1,-3.341173E-2,4.7663618E-2,1.3237995E-1,-1.938947E-2,-2.517798E-3,-1.3747022E-1],"split_indices":[81,31,105,4,154,101,5,0,0,0,0,0,0,0,0],"split_type":[0,0,0,0,0,0,0,0,0,0,0,0,0,0,0],"sum_hessian":[3.6619566E4,2.0529096E4,1.6090471E4,3.0433218E3,1.7485775E4,5.5438643E3,1.0546606E4,2.469687E3,5.736349E2,7.2998403E3,1.0185935E4,9.778502E2,4.566014E3,1.7842562E3,8.762351E3],"tree_param":{"num_deleted":"0","num_feature":"160","num_nodes":"15","size_leaf_vector":"0"}},{"base_weights":[8.199747E-2,-2.9576787E-1,1.1296741E-1,-1.9017431E-1,-5.533049E-1,-3.2275265E-1,1.4145252E-1,-4.328606E-1,-8.510098E-2,-4.5693687E-1,-7.874315E-1,-2.542497E-1,-1.2942696E0,1.6278034E-1,-3.7075287E-1],"categories":[],"categories_nodes":[],"categories_segments":[],"categories_sizes":[],"default_left":[0,0,0,0,0,0,0,0,0,0,0,0,0,0,0],"id":42,"left_children":[1,3,5,7,9,11,13,-1,-1,-1,-1,-1,-1,-1,-1],"loss_changes":[5.615196E2,9.87922E1,5.505862E2,6.5771194E1,2.3488146E1,1.8083836E2,4.5490088E2,0E0,0E0,0E0,0E0,0E0,0E0,0E0,0E0],"parents":[2147483647,0,0,1,1,2,2,3,3,4,4,5,5,6,6],"right_children":[2,4,6,8,10,12,14,-1,-1,-1,-1,-1,-1,-1,-1],"split_conditions":[-5.894175E-1,5.255918E-1,-5.615435E-1,-3.1068903E-1,-3.1224924E-1,2.4643851E-2,1.122694E0,-1.298582E-1,-2.5530295E-2,-1.3708107E-1,-2.3622945E-1,-7.627491E-2,-3.882809E-1,4.8834104E-2,-1.11225866E-1],"split_indices":[138,58,27,88,133,5,1,0,0,0,0,0,0,0,0],"split_type":[0,0,0,0,0,0,0,0,0,0,0,0,0,0,0],"sum_hessian":[4.7991863E4,3.635703E3,4.435616E4,2.5797214E3,1.0559814E3,2.7212021E3,4.1634957E4,7.7850366E2,1.8012179E3,7.501617E2,3.0581973E2,2.5431436E3,1.7805879E2,3.9971266E4,1.6636891E3],"tree_param":{"num_deleted":"0","num_feature":"160","num_nodes":"15","size_leaf_vector":"0"}},{"base_weights":[-1.0161616E-1,-2.180562E-1,1.8640943E-1,-3.2600713E-1,1.4145994E-1,2.4008247E-1,-1.5361749E-1,-3.7867588E-1,4.1705912E-1,-3.538673E-1,2.11313E-1,8.2275486E-1,2.121463E-1,3.6198902E-1,-3.2744387E-1],"categories":[],"categories_nodes":[],"categories_segments":[],"categories_sizes":[],"default_left":[0,0,0,0,0,0,0,0,0,0,0,0,0,0,0],"id":43,"left_children":[1,3,5,7,9,11,13,-1,-1,-1,-1,-1,-1,-1,-1],"loss_changes":[8.323024E2,6.8590076E2,1.3042847E2,5.320762E2,1.4130074E2,1.0027473E2,8.747133E1,0E0,0E0,0E0,0E0,0E0,0E0,0E0,0E0],"parents":[2147483647,0,0,1,1,2,2,3,3,4,4,5,5,6,6],"right_children":[2,4,6,8,10,12,14,-1,-1,-1,-1,-1,-1,-1,-1],"split_conditions":[4.588384E-1,3.451528E-1,2.5541586E-1,8.8735765E-1,-3.1939554E0,-5.289845E-2,7.2430566E-2,-1.13602765E-1,1.2511775E-1,-1.0616019E-1,6.33939E-2,2.4682647E-1,6.3643895E-2,1.0859671E-1,-9.823316E-2],"split_indices":[102,90,9,129,122,97,135,0,0,0,0,0,0,0,0],"split_type":[0,0,0,0,0,0,0,0,0,0,0,0,0,0,0],"sum_hessian":[2.4814701E4,1.7671066E4,7.143635E3,1.3590405E4,4.0806606E3,6.1699985E3,9.736366E2,1.2691331E4,8.9907477E2,5.0384387E2,3.576817E3,2.8098416E2,5.889014E3,2.4520963E2,7.28427E2],"tree_param":{"num_deleted":"0","num_feature":"160","num_nodes":"15","size_leaf_vector":"0"}},{"base_weights":[-4.0973686E-2,3.6445454E-2,-3.5656095E-1,4.0787736E-1,-7.1059656E-3,-3.698406E-2,-4.614848E-1,3.4490645E-1,1.2033527E0,3.5923135E-1,-4.539166E-2,7.512527E-2,-4.300613E-1,3.719218E-1,-4.7787762E-1],"categories":[],"categories_nodes":[],"categories_segments":[],"categories_sizes":[],"default_left":[0,0,0,0,0,0,0,0,0,0,0,0,0,0,0],"id":44,"left_children":[1,3,5,7,9,11,13,-1,-1,-1,-1,-1,-1,-1,-1],"loss_changes":[8.429432E2,4.4816937E2,2.278744E2,1.45231E2,3.4782568E2,7.4107864E1,7.007794E1,0E0,0E0,0E0,0E0,0E0,0E0,0E0,0E0],"parents":[2147483647,0,0,1,1,2,2,3,3,4,4,5,5,6,6],"right_children":[2,4,6,8,10,12,14,-1,-1,-1,-1,-1,-1,-1,-1],"split_conditions":[6.829353E-2,-5.7663065E-1,-6.1296508E-2,-1.4222245E-1,-6.5317255E-1,3.601026E-1,-9.497157E-1,1.0347194E-1,3.610058E-1,1.0776941E-1,-1.3617499E-2,2.2537582E-2,-1.290184E-1,1.1157655E-1,-1.433633E-1],"split_indices":[118,27,34,21,90,121,122,0,0,0,0,0,0,0,0],"split_type":[0,0,0,0,0,0,0,0,0,0,0,0,0,0,0],"sum_hessian":[3.4499375E4,2.770398E4,6.7953926E3,2.9065828E3,2.4797398E4,1.6799517E3,5.115441E3,2.6947004E3,2.1188252E2,2.3455527E3,2.2451846E4,1.3077717E3,3.7217993E2,9.8259605E1,5.0171816E3],"tree_param":{"num_deleted":"0","num_feature":"160","num_nodes":"15","size_leaf_vector":"0"}},{"base_weights":[6.5108396E-2,8.7143525E-2,-3.974163E-1,-2.8950509E-2,1.7354992E-1,-5.5243015E-1,-2.2328994E-1,1.5759961E-1,-1.3938795E-1,-1.9795525E-1,2.3416267E-1,-4.031971E-1,-7.7383393E-1,-4.8621702E-1,6.156073E-2],"categories":[],"categories_nodes":[],"categories_segments":[],"categories_sizes":[],"default_left":[0,0,0,0,0,0,0,0,0,0,0,0,0,0,0],"id":45,"left_children":[1,3,5,7,9,11,13,-1,-1,-1,-1,-1,-1,-1,-1],"loss_changes":[4.594249E2,4.3160645E2,5.5208176E1,3.782722E2,5.55493E2,3.549758E1,7.246255E1,0E0,0E0,0E0,0E0,0E0,0E0,0E0,0E0],"parents":[2147483647,0,0,1,1,2,2,3,3,4,4,5,5,6,6],"right_children":[2,4,6,8,10,12,14,-1,-1,-1,-1,-1,-1,-1,-1],"split_conditions":[1.2304869E0,-6.830697E-2,3.512811E-1,-2.4657731E-1,-2.0080666E-1,-1.2154107E-1,-3.609267E-1,4.7279887E-2,-4.1816387E-2,-5.9386577E-2,7.0248805E-2,-1.2095914E-1,-2.3215018E-1,-1.4586511E-1,1.846822E-2],"split_indices":[55,53,84,150,153,135,148,0,0,0,0,0,0,0,0],"split_type":[0,0,0,0,0,0,0,0,0,0,0,0,0,0,0],"sum_hessian":[4.5073535E4,4.3024613E4,2.048923E3,1.8358773E4,2.466584E4,1.0828004E3,9.661227E2,6.826713E3,1.153206E4,3.4595344E3,2.1206305E4,6.4850726E2,4.3429315E2,5.020272E2,4.640955E2],"tree_param":{"num_deleted":"0","num_feature":"160","num_nodes":"15","size_leaf_vector":"0"}},{"base_weights":[-8.380339E-2,-1.9802359E-1,1.6094719E-1,1.5682338E-1,-3.0782574E-1,2.7261925E-1,-2.9462824E-2,-1.2823072E-1,3.1355086E-1,-3.505275E-1,3.5415357E-1,5.3231525E-1,2.1817937E-1,-1.2166266E-1,3.6990842E-1],"categories":[],"categories_nodes":[],"categories_segments":[],"categories_sizes":[],"default_left":[0,0,0,0,0,0,0,0,0,0,0,0,0,0,0],"id":46,"left_children":[1,3,5,7,9,11,13,-1,-1,-1,-1,-1,-1,-1,-1],"loss_changes":[6.4358813E2,6.11622E2,1.557733E2,1.6578223E2,3.3898016E2,6.516574E1,9.9793785E1,0E0,0E0,0E0,0E0,0E0,0E0,0E0,0E0],"parents":[2147483647,0,0,1,1,2,2,3,3,4,4,5,5,6,6],"right_children":[2,4,6,8,10,12,14,-1,-1,-1,-1,-1,-1,-1,-1],"split_conditions":[5.3942007E-1,-3.585139E-1,5.9267953E-2,-1.7071848E0,5.1848406E-1,2.129335E-1,4.3910894E0,-3.8469218E-2,9.4065264E-2,-1.05158255E-1,1.0624608E-1,1.5969458E-1,6.545381E-2,-3.64988E-2,1.1097253E-1],"split_indices":[101,153,9,122,144,116,118,0,0,0,0,0,0,0,0],"split_type":[0,0,0,0,0,0,0,0,0,0,0,0,0,0,0],"sum_hessian":[2.3019771E4,1.5695286E4,7.324485E3,3.7088828E3,1.1986403E4,4.616537E3,2.7079478E3,1.3158365E3,2.3930461E3,1.1260502E4,7.259014E2,7.985262E2,3.818011E3,2.2006057E3,5.0734198E2],"tree_param":{"num_deleted":"0","num_feature":"160","num_nodes":"15","size_leaf_vector":"0"}},{"base_weights":[-3.0885743E-2,9.017594E-2,-2.0574579E-1,-7.737874E-2,1.9850539E-1,2.486358E-1,-3.131154E-1,3.6420923E-1,-1.5641263E-1,3.4935424E-1,5.2364077E-2,5.8170986E-1,8.2076885E-2,2.17141E-1,-3.8326982E-1],"categories":[],"categories_nodes":[],"categories_segments":[],"categories_sizes":[],"default_left":[0,0,0,0,0,0,0,0,0,0,0,0,0,0,0],"id":47,"left_children":[1,3,5,7,9,11,13,-1,-1,-1,-1,-1,-1,-1,-1],"loss_changes":[6.8919403E2,3.4920795E2,6.498699E2,2.6372272E2,2.5756473E2,1.4121036E2,4.0086493E2,0E0,0E0,0E0,0E0,0E0,0E0,0E0,0E0],"parents":[2147483647,0,0,1,1,2,2,3,3,4,4,5,5,6,6],"right_children":[2,4,6,8,10,12,14,-1,-1,-1,-1,-1,-1,-1,-1],"split_conditions":[-3.9859816E-2,-1.0825829E-1,-8.540444E-2,-6.7990214E-1,-2.2821908E-1,-2.972117E-1,-1.8905764E0,1.0926277E-1,-4.692379E-2,1.04806274E-1,1.5709223E-2,1.7451297E-1,2.4623066E-2,6.51423E-2,-1.1498095E-1],"split_indices":[66,153,73,42,17,9,118,0,0,0,0,0,0,0,0],"split_type":[0,0,0,0,0,0,0,0,0,0,0,0,0,0,0],"sum_hessian":[3.2555111E4,1.923709E4,1.33180205E4,7.5538022E3,1.1683287E4,2.5452717E3,1.0772749E4,1.14617E3,6.4076323E3,5.7483643E3,5.9349233E3,8.476673E2,1.6976044E3,1.2584868E3,9.514263E3],"tree_param":{"num_deleted":"0","num_feature":"160","num_nodes":"15","size_leaf_vector":"0"}},{"base_weights":[5.20964E-2,7.274745E-2,-3.8138133E-1,-3.4056295E-2,1.4168315E-1,-4.3141907E-1,4.6612856E-1,1.7796518E-1,-1.720493E-1,-2.7877736E-1,1.9519058E-1,-5.58451E-1,-2.2685973E-1,-5.9567094E-2,8.401708E-1],"categories":[],"categories_nodes":[],"categories_segments":[],"categories_sizes":[],"default_left":[0,0,0,0,0,0,0,0,0,0,0,0,0,0,0],"id":48,"left_children":[1,3,5,7,9,11,13,-1,-1,-1,-1,-1,-1,-1,-1],"loss_changes":[3.8097458E2,2.9908173E2,8.227347E1,4.6624545E2,5.554626E2,4.7373722E1,2.1359888E1,0E0,0E0,0E0,0E0,0E0,0E0,0E0,0E0],"parents":[2147483647,0,0,1,1,2,2,3,3,4,4,5,5,6,6],"right_children":[2,4,6,8,10,12,14,-1,-1,-1,-1,-1,-1,-1,-1],"split_conditions":[1.0745449E0,-1.0672097E-1,1.1749859E0,-1.8148904E-1,-3.1673533E-1,2.3997016E-1,2.3282523E-1,5.3389557E-2,-5.161479E-2,-8.3633214E-2,5.8557175E-2,-1.675353E-1,-6.8057925E-2,-1.7870128E-2,2.5205126E-1],"split_indices":[17,6,115,134,154,29,28,0,0,0,0,0,0,0,0],"split_type":[0,0,0,0,0,0,0,0,0,0,0,0,0,0,0],"sum_hessian":[4.2554484E4,4.0620156E4,1.9343275E3,1.5933894E4,2.4686262E4,1.8269535E3,1.07374016E2,6.281814E3,9.652079E3,2.7864192E3,2.1899844E4,1.1259841E3,7.0096936E2,4.498743E1,6.238659E1],"tree_param":{"num_deleted":"0","num_feature":"160","num_nodes":"15","size_leaf_vector":"0"}},{"base_weights":[-6.743118E-2,-2.0735197E-1,1.1108842E-1,-3.1149355E-1,1.707138E-1,2.6553297E-1,-2.4040665E-2,-3.9976498E-1,1.4796148E-1,8.51396E-1,1.1313332E-1,2.1037638E-1,4.918848E-1,-1.3843635E-1,2.0104606E-1],"categories":[],"categories_nodes":[],"categories_segments":[],"categories_sizes":[],"default_left":[0,0,0,0,0,0,0,0,0,0,0,0,0,0,0],"id":49,"left_children":[1,3,5,7,9,11,13,-1,-1,-1,-1,-1,-1,-1,-1],"loss_changes":[5.3747595E2,4.749881E2,1.9732938E2,3.8363892E2,1.0203532E2,5.4981804E1,1.2989769E2,0E0,0E0,0E0,0E0,0E0,0E0,0E0,0E0],"parents":[2147483647,0,0,1,1,2,2,3,3,4,4,5,5,6,6],"right_children":[2,4,6,8,10,12,14,-1,-1,-1,-1,-1,-1,-1,-1],"split_conditions":[3.2699007E-1,4.3635267E-1,1.2530132E-1,4.8037618E-1,-4.238896E-2,3.95088E0,1.8076057E0,-1.199295E-1,4.4388447E-2,2.554188E-1,3.394E-2,6.3112915E-2,1.4756544E-1,-4.1530907E-2,6.031382E-2],"split_indices":[81,150,18,54,129,113,65,0,0,0,0,0,0,0,0],"split_type":[0,0,0,0,0,0,0,0,0,0,0,0,0,0,0],"sum_hessian":[2.1515533E4,1.2061646E4,9.453886E3,9.45685E3,2.604797E3,4.411191E3,5.042695E3,7.9328955E3,1.5239543E3,2.020848E2,2.4027124E3,3.5484475E3,8.627432E2,3.343709E3,1.6989862E3],"tree_param":{"num_deleted":"0","num_feature":"160","num_nodes":"15","size_leaf_vector":"0"}},{"base_weights":[-2.4664115E-2,3.411154E-2,-3.1849217E-1,3.8449153E-1,1.7662065E-3,-3.1226207E-2,-4.4677696E-1,4.003013E-1,-3.9537612E-1,1.5395553E-1,-7.305127E-2,6.3834846E-2,-4.1449195E-1,5.3809035E-1,-4.637431E-1],"categories":[],"categories_nodes":[],"categories_segments":[],"categories_sizes":[],"default_left":[0,0,0,0,0,0,0,0,0,0,0,0,0,0,0],"id":50,"left_children":[1,3,5,7,9,11,13,-1,-1,-1,-1,-1,-1,-1,-1],"loss_changes":[5.364377E2,2.9335345E2,1.907946E2,2.713012E1,2.6984668E2,5.830172E1,6.0056244E1,0E0,0E0,0E0,0E0,0E0,0E0,0E0,0E0],"parents":[2147483647,0,0,1,1,2,2,3,3,4,4,5,5,6,6],"right_children":[2,4,6,8,10,12,14,-1,-1,-1,-1,-1,-1,-1,-1],"split_conditions":[7.369895E-2,-7.4523073E-1,-4.7144935E-2,9.429311E-1,-2.5276476E-1,7.8023237E-1,-1.6813517E0,1.20090395E-1,-1.1861284E-1,4.6186663E-2,-2.191538E-2,1.9150455E-2,-1.2434759E-1,1.6142711E-1,-1.3912293E-1],"split_indices":[118,52,34,93,23,117,121,0,0,0,0,0,0,0,0],"split_type":[0,0,0,0,0,0,0,0,0,0,0,0,0,0,0],"sum_hessian":[3.1060307E4,2.5883588E4,5.1767188E3,2.1865842E3,2.3697004E4,1.5984902E3,3.5782285E3,2.1436147E3,4.2969406E1,7.80977E3,1.5887234E4,1.2814795E3,3.1701074E2,6.007741E1,3.5181511E3],"tree_param":{"num_deleted":"0","num_feature":"160","num_nodes":"15","size_leaf_vector":"0"}},{"base_weights":[4.1362237E-2,6.1147086E-2,-3.7387505E-1,-3.3808964E-1,7.990684E-2,-4.1413558E-1,5.107645E-1,-1.8021956E-1,-5.129836E-1,9.9476315E-2,-3.0741468E-1,-5.0804806E-1,-1.7618085E-1,-1.5947822E-1,7.9659754E-1],"categories":[],"categories_nodes":[],"categories_segments":[],"categories_sizes":[],"default_left":[0,0,0,0,0,0,0,0,0,0,0,0,0,0,0],"id":51,"left_children":[1,3,5,7,9,11,13,-1,-1,-1,-1,-1,-1,-1,-1],"loss_changes":[3.3181366E2,2.887542E2,6.563529E1,4.7683277E1,2.7912296E2,3.9185436E1,1.5531418E1,0E0,0E0,0E0,0E0,0E0,0E0,0E0,0E0],"parents":[2147483647,0,0,1,1,2,2,3,3,4,4,5,5,6,6],"right_children":[2,4,6,8,10,12,14,-1,-1,-1,-1,-1,-1,-1,-1],"split_conditions":[1.5972652E0,-8.6525065E-1,1.4723997E0,-2.8823858E-1,3.4846277E0,4.7994894E-1,-9.12333E-2,-5.4065872E-2,-1.538951E-1,2.9842896E-2,-9.2224404E-2,-1.5241443E-1,-5.285426E-2,-4.7843467E-2,2.3897927E-1],"split_indices":[49,58,28,65,102,75,117,0,0,0,0,0,0,0,0],"split_type":[0,0,0,0,0,0,0,0,0,0,0,0,0,0,0],"sum_hessian":[4.038541E4,3.8549492E4,1.8359183E3,1.7293446E3,3.682015E4,1.7565103E3,7.940806E1,9.0997534E2,8.1936926E2,3.504999E4,1.7701616E3,1.2586354E3,4.978749E2,2.3872381E1,5.5535675E1],"tree_param":{"num_deleted":"0","num_feature":"160","num_nodes":"15","size_leaf_vector":"0"}},{"base_weights":[-5.3546824E-2,-1.334519E-1,2.1807575E-1,-2.0960313E-1,1.8725349E-1,2.7128333E-1,-2.2807409E-1,-2.8710094E-1,2.0766415E-1,3.1251535E-1,-2.7612612E-2,9.117456E-1,2.224516E-1,1.5499765E-1,-3.88294E-1],"categories":[],"categories_nodes":[],"categories_segments":[],"categories_sizes":[],"default_left":[0,0,0,0,0,0,0,0,0,0,0,0,0,0,0],"id":52,"left_children":[1,3,5,7,9,11,13,-1,-1,-1,-1,-1,-1,-1,-1],"loss_changes":[4.380337E2,3.8088165E2,1.0896574E2,4.0758502E2,8.0559235E1,1.2800142E2,3.0095354E1,0E0,0E0,0E0,0E0,0E0,0E0,0E0,0E0],"parents":[2147483647,0,0,1,1,2,2,3,3,4,4,5,5,6,6],"right_children":[2,4,6,8,10,12,14,-1,-1,-1,-1,-1,-1,-1,-1],"split_conditions":[4.4559377E-1,1.2128563E0,2.5142187E-1,7.763595E-1,4.2067617E-1,-1.048985E-1,2.203588E-1,-8.6130284E-2,6.2299248E-2,9.375461E-2,-8.283784E-3,2.735237E-1,6.673548E-2,4.6499297E-2,-1.1648821E-1],"split_indices":[122,65,29,130,75,97,61,0,0,0,0,0,0,0,0],"split_type":[0,0,0,0,0,0,0,0,0,0,0,0,0,0,0],"sum_hessian":[2.0179803E4,1.5593163E4,4.586639E3,1.2601334E4,2.99183E3,4.0982734E3,4.883656E2,1.0627779E4,1.9735537E3,1.8897158E3,1.1021141E3,2.8908246E2,3.809191E3,1.4403152E2,3.443341E2],"tree_param":{"num_deleted":"0","num_feature":"160","num_nodes":"15","size_leaf_vector":"0"}},{"base_weights":[-1.9813167E-2,3.0131087E-2,-2.9942045E-1,3.415815E-1,-2.729399E-3,2.7286105E-2,-4.1333762E-1,1.6796018E-1,6.3356537E-1,3.899448E-1,-2.7082123E-2,1.5974647E-1,-3.7602806E-1,2.1064183E-1,-4.4076034E-1],"categories":[],"categories_nodes":[],"categories_segments":[],"categories_sizes":[],"default_left":[0,0,0,0,0,0,0,0,0,0,0,0,0,0,0],"id":53,"left_children":[1,3,5,7,9,11,13,-1,-1,-1,-1,-1,-1,-1,-1],"loss_changes":[4.1575006E2,2.5852E2,1.6793306E2,1.22106255E2,2.1851819E2,6.2427788E1,5.7337997E1,0E0,0E0,0E0,0E0,0E0,0E0,0E0,0E0],"parents":[2147483647,0,0,1,1,2,2,3,3,4,4,5,5,6,6],"right_children":[2,4,6,8,10,12,14,-1,-1,-1,-1,-1,-1,-1,-1],"split_conditions":[7.726951E-2,-2.4465661E-1,-5.192952E-2,-2.2149758E-1,-1.2666769E0,8.183189E-2,-2.540961E-1,5.0388057E-2,1.9006962E-1,1.1698344E-1,-8.124637E-3,4.792394E-2,-1.1280842E-1,6.3192554E-2,-1.322281E-1],"split_indices":[118,12,48,118,53,95,84,0,0,0,0,0,0,0,0],"split_type":[0,0,0,0,0,0,0,0,0,0,0,0,0,0,0],"sum_hessian":[2.9769691E4,2.5258787E4,4.510905E3,2.409762E3,2.2849025E4,1.166429E3,3.344476E3,1.5121642E3,8.9759766E2,1.333416E3,2.151561E4,8.785055E2,2.8792343E2,1.4051443E2,3.2039617E3],"tree_param":{"num_deleted":"0","num_feature":"160","num_nodes":"15","size_leaf_vector":"0"}},{"base_weights":[3.2963414E-2,4.8140112E-2,-4.5231143E-1,6.371471E-2,-2.8858286E-1,-4.802275E-1,5.7657725E-1,-2.3099713E-2,1.3899083E-1,-7.110106E-1,-1.7857024E-1,-7.2224915E-1,-3.918256E-1,-4.9877566E-1,7.99007E-1],"categories":[],"categories_nodes":[],"categories_segments":[],"categories_sizes":[],"default_left":[0,0,0,0,0,0,0,0,0,0,0,0,0,0,0],"id":54,"left_children":[1,3,5,7,9,11,13,-1,-1,-1,-1,-1,-1,-1,-1],"loss_changes":[2.8503397E2,1.9681802E2,3.39879E1,2.3440274E2,7.697832E1,2.4176422E1,7.9229226E0,0E0,0E0,0E0,0E0,0E0,0E0,0E0,0E0],"parents":[2147483647,0,0,1,1,2,2,3,3,4,4,5,5,6,6],"right_children":[2,4,6,8,10,12,14,-1,-1,-1,-1,-1,-1,-1,-1],"split_conditions":[1.3650942E0,1.8936644E0,1.7694788E0,-7.6560065E-2,3.1064886E-1,2.831487E-1,-2.7729326E-1,-6.929914E-3,4.1697253E-2,-2.1330318E-1,-5.3571075E-2,-2.1667476E-1,-1.1754768E-1,-1.496327E-1,2.397021E-1],"split_indices":[23,87,115,21,84,20,149,0,0,0,0,0,0,0,0],"split_type":[0,0,0,0,0,0,0,0,0,0,0,0,0,0,0],"sum_hessian":[3.8697875E4,3.75252E4,1.1726787E3,3.5867035E4,1.6581637E3,1.142221E3,3.0457766E1,1.6657254E4,1.9209781E4,3.4148038E2,1.3166832E3,3.0367288E2,8.3854803E2,5.0072846E0,2.5450481E1],"tree_param":{"num_deleted":"0","num_feature":"160","num_nodes":"15","size_leaf_vector":"0"}},{"base_weights":[-4.714664E-2,-1.2983406E-1,1.7333438E-1,-1.9995737E-1,1.8444453E-1,2.9354647E-1,1.4656243E-2,-2.7056998E-1,1.9548094E-1,5.385445E-1,6.473774E-2,5.310763E-1,1.9500521E-1,1.8662767E-1,-1.3015553E-1],"categories":[],"categories_nodes":[],"categories_segments":[],"categories_sizes":[],"default_left":[0,0,0,0,0,0,0,0,0,0,0,0,0,0,0],"id":55,"left_children":[1,3,5,7,9,11,13,-1,-1,-1,-1,-1,-1,-1,-1],"loss_changes":[3.4796478E2,3.0593652E2,9.9296555E1,3.169442E2,1.0731773E2,6.922308E1,5.593133E1,0E0,0E0,0E0,0E0,0E0,0E0,0E0,0E0],"parents":[2147483647,0,0,1,1,2,2,3,3,4,4,5,5,6,6],"right_children":[2,4,6,8,10,12,14,-1,-1,-1,-1,-1,-1,-1,-1],"split_conditions":[4.68975E-1,4.531049E-1,1.2956615E-1,8.4066385E-1,2.9672045E-1,2.1440978E-1,-1.2095742E-1,-8.1171E-2,5.8644284E-2,1.6156335E-1,1.9421322E-2,1.593229E-1,5.8501564E-2,5.5988304E-2,-3.904666E-2],"split_indices":[83,121,2,130,97,84,138,0,0,0,0,0,0,0,0],"split_type":[0,0,0,0,0,0,0,0,0,0,0,0,0,0,0],"sum_hessian":[1.9084195E4,1.3879393E4,5.2048037E3,1.1347785E4,2.5316074E3,2.9608555E3,2.243948E3,9.62872E3,1.719065E3,6.3872406E2,1.8928833E3,8.668816E2,2.0939739E3,1.0256487E3,1.2182993E3],"tree_param":{"num_deleted":"0","num_feature":"160","num_nodes":"15","size_leaf_vector":"0"}},{"base_weights":[-1.3075477E-2,7.9316914E-2,-1.4652452E-1,-1.6220064E-1,1.7201044E-1,3.0457808E-2,-3.464515E-1,3.6065105E-1,-2.8119823E-1,2.1125947E-1,-1.9113979E-1,3.3475828E-1,-3.8324103E-2,7.175333E-2,-4.1885456E-1],"categories":[],"categories_nodes":[],"categories_segments":[],"categories_sizes":[],"default_left":[0,0,0,0,0,0,0,0,0,0,0,0,0,0,0],"id":56,"left_children":[1,3,5,7,9,11,13,-1,-1,-1,-1,-1,-1,-1,-1],"loss_changes":[3.5441644E2,3.802825E2,4.1610776E2,2.9323737E2,1.7499959E2,1.305905E2,1.6723111E2,0E0,0E0,0E0,0E0,0E0,0E0,0E0,0E0],"parents":[2147483647,0,0,1,1,2,2,3,3,4,4,5,5,6,6],"right_children":[2,4,6,8,10,12,14,-1,-1,-1,-1,-1,-1,-1,-1],"split_conditions":[-3.967385E-2,-1.7323403E-1,-7.9064414E-2,-1.2075529E0,1.8752952E-1,-2.9225245E0,-6.1072394E-2,1.0819532E-1,-8.4359474E-2,6.337784E-2,-5.7341937E-2,1.00427486E-1,-1.1497231E-2,2.1526E-2,-1.2565638E-1],"split_indices":[49,144,118,53,139,101,21,0,0,0,0,0,0,0,0],"split_type":[0,0,0,0,0,0,0,0,0,0,0,0,0,0,0],"sum_hessian":[2.874305E4,1.6984424E4,1.1758626E4,4.710426E3,1.2273998E4,6.2376704E3,5.520956E3,8.729272E2,3.8374985E3,1.10772E4,1.1967985E3,1.1492715E3,5.088399E3,8.147746E2,4.706181E3],"tree_param":{"num_deleted":"0","num_feature":"160","num_nodes":"15","size_leaf_vector":"0"}},{"base_weights":[2.6244732E-2,4.767268E-2,-3.0575806E-1,6.37379E-2,-3.0984086E-1,-4.0375832E-1,1.5339269E-1,-4.382388E-3,1.5176898E-1,-4.6180394E-1,-5.05856E-2,-8.9698845E-1,-3.692238E-1,-5.5866295E-1,3.110998E-1],"categories":[],"categories_nodes":[],"categories_segments":[],"categories_sizes":[],"default_left":[0,0,0,0,0,0,0,0,0,0,0,0,0,0,0],"id":57,"left_children":[1,3,5,7,9,11,13,-1,-1,-1,-1,-1,-1,-1,-1],"loss_changes":[2.6588718E2,2.0166061E2,1.0202337E2,2.0148114E2,5.9463158E1,3.1481668E1,4.5013416E1,0E0,0E0,0E0,0E0,0E0,0E0,0E0,0E0],"parents":[2147483647,0,0,1,1,2,2,3,3,4,4,5,5,6,6],"right_children":[2,4,6,8,10,12,14,-1,-1,-1,-1,-1,-1,-1,-1],"split_conditions":[6.558923E-1,1.171545E0,3.6967367E-1,-3.8367316E-2,3.6827368E-1,-1.728106E-1,2.1107574E-1,-1.3147165E-3,4.5530695E-2,-1.3854119E-1,-1.5175681E-2,-2.6909655E-1,-1.1076715E-1,-1.6759889E-1,9.332994E-2],"split_indices":[6,34,105,6,43,27,71,0,0,0,0,0,0,0,0],"split_type":[0,0,0,0,0,0,0,0,0,0,0,0,0,0,0],"sum_hessian":[3.737142E4,3.5106457E4,2.264966E3,3.359754E4,1.5089165E3,1.8666686E3,3.9829755E2,1.894131E4,1.46562295E4,9.5081366E2,5.5810284E2,1.2051209E2,1.7461565E3,7.175911E1,3.2653845E2],"tree_param":{"num_deleted":"0","num_feature":"160","num_nodes":"15","size_leaf_vector":"0"}},{"base_weights":[-3.493545E-2,-2.2050574E-1,5.1673952E-2,-3.12652E-1,1.5757287E-1,2.592779E-1,-1.3393109E-2,-4.253607E-1,3.338141E-2,-3.2096043E-1,3.2899064E-1,-2.4394788E-1,3.015442E-1,1.5877037E-1,-1.0219467E-1],"categories":[],"categories_nodes":[],"categories_segments":[],"categories_sizes":[],"default_left":[0,0,0,0,0,0,0,0,0,0,0,0,0,0,0],"id":58,"left_children":[1,3,5,7,9,11,13,-1,-1,-1,-1,-1,-1,-1,-1],"loss_changes":[2.937479E2,2.026624E2,1.6833374E2,1.8240005E2,9.364642E1,6.332228E1,1.4508275E2,0E0,0E0,0E0,0E0,0E0,0E0,0E0,0E0],"parents":[2147483647,0,0,1,1,2,2,3,3,4,4,5,5,6,6],"right_children":[2,4,6,8,10,12,14,-1,-1,-1,-1,-1,-1,-1,-1],"split_conditions":[5.4815248E-2,2.3585983E-1,-2.0609002E-1,1.2438293E-1,-1.386538E-1,-3.2852259E0,-3.204064E-2,-1.2760822E-1,1.0014423E-2,-9.628814E-2,9.869719E-2,-7.318436E-2,9.046326E-2,4.763111E-2,-3.0658402E-2],"split_indices":[82,130,157,54,18,106,94,0,0,0,0,0,0,0,0],"split_type":[0,0,0,0,0,0,0,0,0,0,0,0,0,0,0],"sum_hessian":[1.8275139E4,5.8147793E3,1.2460359E4,4.6754424E3,1.139337E3,2.9726838E3,9.487675E3,3.526556E3,1.1488862E3,3.0025806E2,8.390789E2,2.2996231E2,2.7427217E3,3.2282114E3,6.259464E3],"tree_param":{"num_deleted":"0","num_feature":"160","num_nodes":"15","size_leaf_vector":"0"}},{"base_weights":[-1.2279837E-2,4.312061E-2,-2.0059703E-1,5.582512E-1,2.4756718E-2,2.0471795E-1,-2.807172E-1,3.765681E-1,9.5273393E-1,2.8724715E-1,-4.547969E-3,3.0061284E-1,-2.017143E-1,-8.520725E-2,-3.7977916E-1],"categories":[],"categories_nodes":[],"categories_segments":[],"categories_sizes":[],"default_left":[0,0,0,0,0,0,0,0,0,0,0,0,0,0,0],"id":59,"left_children":[1,3,5,7,9,11,13,-1,-1,-1,-1,-1,-1,-1,-1],"loss_changes":[2.9085507E2,2.0376645E2,2.0585179E2,5.278228E1,1.6000865E2,4.0848713E1,1.0245508E2,0E0,0E0,0E0,0E0,0E0,0E0,0E0,0E0],"parents":[2147483647,0,0,1,1,2,2,3,3,4,4,5,5,6,6],"right_children":[2,4,6,8,10,12,14,-1,-1,-1,-1,-1,-1,-1,-1],"split_conditions":[9.0674356E-2,-7.945605E-1,-2.430564E0,9.398933E-2,-1.0823326E0,5.542244E0,6.397201E-3,1.12970434E-1,2.858202E-1,8.6174145E-2,-1.3643907E-3,9.0183854E-2,-6.0514294E-2,-2.5562176E-2,-1.1393375E-1],"split_indices":[73,31,101,4,18,65,82,0,0,0,0,0,0,0,0],"split_type":[0,0,0,0,0,0,0,0,0,0,0,0,0,0,0],"sum_hessian":[2.7876926E4,2.1540705E4,6.336221E3,7.4045984E2,2.0800244E4,1.0455249E3,5.2906963E3,5.0830792E2,2.3215193E2,2.0880635E3,1.8712182E4,8.461435E2,1.9938138E2,1.7798403E3,3.5108562E3],"tree_param":{"num_deleted":"0","num_feature":"160","num_nodes":"15","size_leaf_vector":"0"}},{"base_weights":[2.0638285E-2,3.3796307E-2,-4.0001115E-1,4.586523E-2,-4.0562677E-1,-7.813797E-1,-3.0315518E-1,3.47598E-2,5.496448E-1,-5.030087E-1,8.15351E-2,-2.7088383E-1,-9.568345E-1,-4.9856257E-1,-1.4820138E-1],"categories":[],"categories_nodes":[],"categories_segments":[],"categories_sizes":[],"default_left":[0,0,0,0,0,0,0,0,0,0,0,0,0,0,0],"id":60,"left_children":[1,3,5,7,9,11,13,-1,-1,-1,-1,-1,-1,-1,-1],"loss_changes":[2.0094652E2,1.867109E2,4.0438896E1,1.9166902E2,4.4687996E1,1.9660404E1,2.6565748E1,0E0,0E0,0E0,0E0,0E0,0E0,0E0,0E0],"parents":[2147483647,0,0,1,1,2,2,3,3,4,4,5,5,6,6],"right_children":[2,4,6,8,10,12,14,-1,-1,-1,-1,-1,-1,-1,-1],"split_conditions":[1.9928026E0,8.822965E-1,2.6458257E-1,8.772306E-1,5.172567E-1,-2.6124865E-1,-1.0112295E0,1.0427941E-2,1.6489345E-1,-1.5090263E-1,2.4460532E-2,-8.126515E-2,-2.8705037E-1,-1.4956878E-1,-4.4460416E-2],"split_indices":[55,26,52,28,93,135,118,0,0,0,0,0,0,0,0],"split_type":[0,0,0,0,0,0,0,0,0,0,0,0,0,0,0],"sum_hessian":[3.630182E4,3.5201625E4,1.1001962E3,3.4261516E4,9.4011005E2,2.2139397E2,8.7880225E2,3.3523582E4,7.379323E2,7.834655E2,1.5664453E2,5.727959E1,1.6411436E2,3.8768607E2,4.9111618E2],"tree_param":{"num_deleted":"0","num_feature":"160","num_nodes":"15","size_leaf_vector":"0"}},{"base_weights":[-2.6103584E-2,-2.1355693E-1,4.4199985E-2,-3.2117814E-1,8.896933E-2,1.3919441E-2,3.8923696E-1,-4.148833E-1,1.1758103E-1,-5.4967955E-2,4.507579E-1,2.0701018E-1,-4.6446707E-2,4.2599827E-1,-4.698623E-1],"categories":[],"categories_nodes":[],"categories_segments":[],"categories_sizes":[],"default_left":[0,0,0,0,0,0,0,0,0,0,0,0,0,0,0],"id":61,"left_children":[1,3,5,7,9,11,13,-1,-1,-1,-1,-1,-1,-1,-1],"loss_changes":[2.3206381E2,1.5640189E2,1.3379561E2,1.4570906E2,6.569333E1,1.372526E2,3.2829918E1,0E0,0E0,0E0,0E0,0E0,0E0,0E0,0E0],"parents":[2147483647,0,0,1,1,2,2,3,3,4,4,5,5,6,6],"right_children":[2,4,6,8,10,12,14,-1,-1,-1,-1,-1,-1,-1,-1],"split_conditions":[2.4832679E-2,6.623073E-2,5.7750683E0,1.0666175E-1,8.0966905E-2,-6.6533095E-1,6.8942156E0,-1.2446499E-1,3.5274312E-2,-1.6490387E-2,1.3522737E-1,6.2103055E-2,-1.39340125E-2,1.2779948E-1,-1.409587E-1],"split_indices":[82,48,97,113,96,145,148,0,0,0,0,0,0,0,0],"split_type":[0,0,0,0,0,0,0,0,0,0,0,0,0,0,0],"sum_hessian":[1.7607371E4,4.80188E3,1.2805491E4,3.5418386E3,1.2600413E3,1.1773303E4,1.0321881E3,2.918577E3,6.2326184E2,9.02021E2,3.5802023E2,2.8034841E3,8.969819E3,9.903161E2,4.1872025E1],"tree_param":{"num_deleted":"0","num_feature":"160","num_nodes":"15","size_leaf_vector":"0"}},{"base_weights":[-1.0671254E-2,2.9914018E-2,-2.1355923E-1,1.2155109E-1,-6.7130506E-2,2.9574317E-1,-2.690497E-1,-1.2301686E-1,2.941861E-1,2.1494988E-1,-1.6063346E-1,-4.138847E-2,4.3336883E-1,4.4781573E-2,-3.3183938E-1],"categories":[],"categories_nodes":[],"categories_segments":[],"categories_sizes":[],"default_left":[0,0,0,0,0,0,0,0,0,0,0,0,0,0,0],"id":62,"left_children":[1,3,5,7,9,11,13,-1,-1,-1,-1,-1,-1,-1,-1],"loss_changes":[2.2345882E2,2.0111389E2,1.2792456E2,4.9113107E2,2.8973392E2,2.0661419E1,8.040744E1,0E0,0E0,0E0,0E0,0E0,0E0,0E0,0E0],"parents":[2147483647,0,0,1,1,2,2,3,3,4,4,5,5,6,6],"right_children":[2,4,6,8,10,12,14,-1,-1,-1,-1,-1,-1,-1,-1],"split_conditions":[1.20657876E-1,-1.5987878E-1,-1.4695015E0,-2.3015885E-1,-1.7913918E-1,-3.9902216E-1,-3.622628E-1,-3.6905058E-2,8.825583E-2,6.448497E-2,-4.819004E-2,-1.2416542E-2,1.3001065E-1,1.34344725E-2,-9.955182E-2],"split_indices":[107,5,97,133,74,153,32,0,0,0,0,0,0,0,0],"split_type":[0,0,0,0,0,0,0,0,0,0,0,0,0,0,0],"sum_hessian":[2.7135906E4,2.2613252E4,4.522654E3,1.1630535E4,1.0982718E4,4.4392215E2,4.0787317E3,4.8127344E3,6.8178003E3,2.7338677E3,8.248851E3,1.2888968E2,3.1503247E2,6.800476E2,3.398684E3],"tree_param":{"num_deleted":"0","num_feature":"160","num_nodes":"15","size_leaf_vector":"0"}},{"base_weights":[1.5733909E-2,3.0838404E-2,-3.0127603E-1,4.3438714E-2,-3.613278E-1,-3.9862454E-1,6.781612E-2,2.706077E-4,1.5236759E-1,-6.0584694E-1,-1.4127639E-1,-4.1606638E-1,2.0206234E-1,2.4818052E-1,-5.479329E-1],"categories":[],"categories_nodes":[],"categories_segments":[],"categories_sizes":[],"default_left":[0,0,0,0,0,0,0,0,0,0,0,0,0,0,0],"id":63,"left_children":[1,3,5,7,9,11,13,-1,-1,-1,-1,-1,-1,-1,-1],"loss_changes":[1.6948772E2,1.6696454E2,5.7868996E1,1.5392723E2,5.6510967E1,1.3431787E1,3.754443E1,0E0,0E0,0E0,0E0,0E0,0E0,0E0,0E0],"parents":[2147483647,0,0,1,1,2,2,3,3,4,4,5,5,6,6],"right_children":[2,4,6,8,10,12,14,-1,-1,-1,-1,-1,-1,-1,-1],"split_conditions":[6.9103616E-1,2.406703E0,4.9449056E-1,8.718772E-2,4.171653E-2,9.628772E-1,4.288724E0,8.118231E-5,4.571028E-2,-1.8175408E-1,-4.238292E-2,-1.2481992E-1,6.0618702E-2,7.445416E-2,-1.6437988E-1],"split_indices":[3,122,75,75,132,115,54,0,0,0,0,0,0,0,0],"split_type":[0,0,0,0,0,0,0,0,0,0,0,0,0,0,0],"sum_hessian":[3.5393465E4,3.3784637E4,1.6088257E3,3.273379E4,1.050848E3,1.2729923E3,3.3583334E2,2.3444016E4,9.289773E3,4.9692087E2,5.539272E2,1.2373708E3,3.5621532E1,2.6020993E2,7.5623405E1],"tree_param":{"num_deleted":"0","num_feature":"160","num_nodes":"15","size_leaf_vector":"0"}},{"base_weights":[-2.287949E-2,-8.81918E-2,1.6534586E-1,-1.489623E-1,2.26038E-1,4.2168438E-1,8.0213E-2,-2.9548272E-1,5.1642876E-2,3.247663E-1,-6.429665E-2,2.9257843E-1,6.502803E-1,6.4134353E-1,3.6440417E-2],"categories":[],"categories_nodes":[],"categories_segments":[],"categories_sizes":[],"default_left":[0,0,0,0,0,0,0,0,0,0,0,0,0,0,0],"id":64,"left_children":[1,3,5,7,9,11,13,-1,-1,-1,-1,-1,-1,-1,-1],"loss_changes":[2.0964485E2,2.4179062E2,9.583532E1,3.1184644E2,5.884084E1,3.212684E1,8.100854E1,0E0,0E0,0E0,0E0,0E0,0E0,0E0,0E0],"parents":[2147483647,0,0,1,1,2,2,3,3,4,4,5,5,6,6],"right_children":[2,4,6,8,10,12,14,-1,-1,-1,-1,-1,-1,-1,-1],"split_conditions":[4.0872854E-1,8.445663E-1,-1.304665E-1,3.9391893E-1,1.6145105E0,1.1112547E0,-8.881478E-2,-8.864482E-2,1.5492863E-2,9.7429894E-2,-1.9288994E-2,8.777353E-2,1.950841E-1,1.9240306E-1,1.0932125E-2],"split_indices":[122,129,131,49,117,107,98,0,0,0,0,0,0,0,0],"split_type":[0,0,0,0,0,0,0,0,0,0,0,0,0,0,0],"sum_hessian":[1.7051215E4,1.2659149E4,4.3920664E3,1.0608117E4,2.0510317E3,1.0940085E3,3.2980579E3,6.1301973E3,4.4779204E3,1.530475E3,5.205568E2,7.006032E2,3.934054E2,2.3766936E2,3.0603887E3],"tree_param":{"num_deleted":"0","num_feature":"160","num_nodes":"15","size_leaf_vector":"0"}},{"base_weights":[-6.2951026E-3,2.7484419E-2,-2.2017296E-1,-7.085112E-2,9.8668054E-2,2.2933616E-1,-3.2672998E-1,2.7813625E-1,-1.2654287E-1,2.867068E-1,-2.3593135E-2,7.2852784E-1,-2.2186363E-2,-4.544995E-2,-4.4720927E-1],"categories":[],"categories_nodes":[],"categories_segments":[],"categories_sizes":[],"default_left":[0,0,0,0,0,0,0,0,0,0,0,0,0,0,0],"id":65,"left_children":[1,3,5,7,9,11,13,-1,-1,-1,-1,-1,-1,-1,-1],"loss_changes":[1.9137813E2,1.6014017E2,1.7313441E2,1.8675008E2,3.0509958E2,8.7020935E1,9.897155E1,0E0,0E0,0E0,0E0,0E0,0E0,0E0,0E0],"parents":[2147483647,0,0,1,1,2,2,3,3,4,4,5,5,6,6],"right_children":[2,4,6,8,10,12,14,-1,-1,-1,-1,-1,-1,-1,-1],"split_conditions":[5.472465E-2,-1.1640267E-1,-1.3784127E-1,-6.4512736E-1,-1.6410546E-1,-1.1815743E-1,-7.7229545E-2,8.344088E-2,-3.796286E-2,8.601204E-2,-7.0779407E-3,2.1855836E-1,-6.655909E-3,-1.3634985E-2,-1.3416278E-1],"split_indices":[102,154,74,42,4,123,34,0,0,0,0,0,0,0,0],"split_type":[0,0,0,0,0,0,0,0,0,0,0,0,0,0,0],"sum_hessian":[2.6487615E4,2.2875559E4,3.6120571E3,9.605791E3,1.3269768E4,6.919451E2,2.920112E3,1.3213948E3,8.2843955E3,5.227887E3,8.0418804E3,2.3119688E2,4.6074826E2,8.760942E2,2.0440178E3],"tree_param":{"num_deleted":"0","num_feature":"160","num_nodes":"15","size_leaf_vector":"0"}},{"base_weights":[1.2925139E-2,-3.6410332E-1,2.4717536E-2,-2.667665E-1,-5.741928E-1,-3.3305886E-1,3.5837803E-2,-4.229288E-3,-4.352643E-1,-6.357045E-1,-1.4279062E-1,-2.4781454E-1,-7.734657E-1,9.244615E-3,1.7294702E-1],"categories":[],"categories_nodes":[],"categories_segments":[],"categories_sizes":[],"default_left":[0,0,0,0,0,0,0,0,0,0,0,0,0,0,0],"id":66,"left_children":[1,3,5,7,9,11,13,-1,-1,-1,-1,-1,-1,-1,-1],"loss_changes":[1.5351913E2,2.1261982E1,1.3321812E2,3.1739115E1,8.684852E0,3.7702225E1,1.1839892E2,0E0,0E0,0E0,0E0,0E0,0E0,0E0,0E0],"parents":[2147483647,0,0,1,1,2,2,3,3,4,4,5,5,6,6],"right_children":[2,4,6,8,10,12,14,-1,-1,-1,-1,-1,-1,-1,-1],"split_conditions":[-1.866971E0,-5.4164034E-1,-8.6042887E-1,3.7444586E-1,-3.4905344E-1,4.404922E-2,1.8140312E-1,-1.2687865E-3,-1.305793E-1,-1.9071136E-1,-4.2837188E-2,-7.434437E-2,-2.3203972E-1,2.7733846E-3,5.1884107E-2],"split_indices":[133,135,59,33,151,37,94,0,0,0,0,0,0,0,0],"split_type":[0,0,0,0,0,0,0,0,0,0,0,0,0,0,0],"sum_hessian":[3.4526156E4,1.0462242E3,3.347993E4,7.165215E2,3.2970276E2,1.0083685E3,3.2471562E4,2.8049933E2,4.3602216E2,2.88144E2,4.1558746E1,8.461517E2,1.6221686E2,2.7197506E4,5.274058E3],"tree_param":{"num_deleted":"0","num_feature":"160","num_nodes":"15","size_leaf_vector":"0"}},{"base_weights":[-2.030724E-2,1.3964555E-1,-8.497496E-2,-3.2680905E-1,1.8297245E-1,-1.7382307E-1,1.3954721E-1,-4.3991894E-1,1.5802251E-1,-2.7248996E-1,2.311314E-1,-2.3078619E-1,2.0634471E-1,5.2640945E-1,6.245921E-2],"categories":[],"categories_nodes":[],"categories_segments":[],"categories_sizes":[],"default_left":[0,0,0,0,0,0,0,0,0,0,0,0,0,0,0],"id":67,"left_children":[1,3,5,7,9,11,13,-1,-1,-1,-1,-1,-1,-1,-1],"loss_changes":[1.7084639E2,9.616257E1,2.3464644E2,2.2252476E1,9.551562E1,1.8254437E2,9.943145E1,0E0,0E0,0E0,0E0,0E0,0E0,0E0,0E0],"parents":[2147483647,0,0,1,1,2,2,3,3,4,4,5,5,6,6],"right_children":[2,4,6,8,10,12,14,-1,-1,-1,-1,-1,-1,-1,-1],"split_conditions":[-1.4123254E-1,-2.4356508E0,6.7770284E-1,5.7118235E0,-2.605067E-1,4.4735616E-1,2.0456405E-1,-1.3197568E-1,4.7406755E-2,-8.1746995E-2,6.9339424E-2,-6.923586E-2,6.1903413E-2,1.5792283E-1,1.8737765E-2],"split_indices":[158,126,119,69,21,153,116,0,0,0,0,0,0,0,0],"split_type":[0,0,0,0,0,0,0,0,0,0,0,0,0,0,0],"sum_hessian":[1.6514672E4,4.7542017E3,1.1760471E4,4.0350882E2,4.350693E3,8.426253E3,3.3342183E3,3.27254E2,7.625484E1,4.1559106E2,3.935102E3,7.3285576E3,1.0976947E3,5.5303107E2,2.7811873E3],"tree_param":{"num_deleted":"0","num_feature":"160","num_nodes":"15","size_leaf_vector":"0"}},{"base_weights":[-4.2736726E-3,3.0961368E-2,-1.8041249E-1,2.2054908E-1,-4.0208385E-3,2.1713755E-1,-2.4238585E-1,-6.536147E-2,3.070485E-1,1.2464274E-1,-7.086947E-2,2.838469E-1,-2.2390348E-1,2.4093555E-1,-2.790754E-1],"categories":[],"categories_nodes":[],"categories_segments":[],"categories_sizes":[],"default_left":[0,0,0,0,0,0,0,0,0,0,0,0,0,0,0],"id":68,"left_children":[1,3,5,7,9,11,13,-1,-1,-1,-1,-1,-1,-1,-1],"loss_changes":[1.6102905E2,1.433971E2,1.0661267E2,8.331557E1,1.5701271E2,1.7240793E1,6.642859E1,0E0,0E0,0E0,0E0,0E0,0E0,0E0,0E0],"parents":[2147483647,0,0,1,1,2,2,3,3,4,4,5,5,6,6],"right_children":[2,4,6,8,10,12,14,-1,-1,-1,-1,-1,-1,-1,-1],"split_conditions":[1.1654945E-1,-1.5657525E-1,-1.7582655E0,-4.3057352E-1,-1.6095547E-1,4.364176E0,-1.698247E0,-1.9608442E-2,9.211455E-2,3.739282E-2,-2.126084E-2,8.515408E-2,-6.7171045E-2,7.228067E-2,-8.372263E-2],"split_indices":[139,31,101,154,0,66,22,0,0,0,0,0,0,0,0],"split_type":[0,0,0,0,0,0,0,0,0,0,0,0,0,0,0],"sum_hessian":[2.5944338E4,2.1620225E4,4.324114E3,3.3670474E3,1.8253176E4,5.828315E2,3.7412822E3,7.8211865E2,2.584929E3,6.240746E3,1.2012431E4,5.0656738E2,7.62641E1,2.635748E2,3.4777075E3],"tree_param":{"num_deleted":"0","num_feature":"160","num_nodes":"15","size_leaf_vector":"0"}},{"base_weights":[1.0645727E-2,2.2292133E-2,-3.6163896E-1,2.8422754E-2,-5.586301E-1,-7.8273706E-2,-4.5698237E-1,4.2533777E-3,1.7467266E-1,-6.362667E-1,3.262483E-1,-3.7953544E-1,2.2314522E-1,-4.9573475E-1,5.905447E-1],"categories":[],"categories_nodes":[],"categories_segments":[],"categories_sizes":[],"default_left":[0,0,0,0,0,0,0,0,0,0,0,0,0,0,0],"id":69,"left_children":[1,3,5,7,9,11,13,-1,-1,-1,-1,-1,-1,-1,-1],"loss_changes":[1.470122E2,1.1710571E2,2.7752583E1,1.1500282E2,2.3797974E1,2.3708208E1,3.1525772E1,0E0,0E0,0E0,0E0,0E0,0E0,0E0,0E0],"parents":[2147483647,0,0,1,1,2,2,3,3,4,4,5,5,6,6],"right_children":[2,4,6,8,10,12,14,-1,-1,-1,-1,-1,-1,-1,-1],"split_conditions":[1.2501326E0,2.345767E0,-3.973742E-1,1.9833274E-1,1.7419357E0,7.552619E-2,1.1531248E0,1.2760133E-3,5.24018E-2,-1.9088002E-1,9.787449E-2,-1.1386064E-1,6.694357E-2,-1.4872043E-1,1.7716342E-1],"split_indices":[23,58,15,94,83,13,120,0,0,0,0,0,0,0,0],"split_type":[0,0,0,0,0,0,0,0,0,0,0,0,0,0,0],"sum_hessian":[3.3903895E4,3.2876344E4,1.0275505E3,3.2533957E4,3.4238806E2,2.5915372E2,7.683968E2,2.7920775E4,4.6131807E3,3.150293E2,2.735877E1,1.2948105E2,1.2967268E2,7.414926E2,2.6904135E1],"tree_param":{"num_deleted":"0","num_feature":"160","num_nodes":"15","size_leaf_vector":"0"}},{"base_weights":[-1.6052688E-2,-5.4442283E-2,2.2698508E-1,-1.281202E-1,1.0184853E-1,6.242418E-1,1.0394126E-1,-1.6465649E-1,5.022543E-1,3.2411233E-1,-2.424387E-2,-3.4956506E-1,7.339166E-1,6.408937E-3,4.2248356E-1],"categories":[],"categories_nodes":[],"categories_segments":[],"categories_sizes":[],"default_left":[0,0,0,0,0,0,0,0,0,0,0,0,0,0,0],"id":70,"left_children":[1,3,5,7,9,11,13,-1,-1,-1,-1,-1,-1,-1,-1],"loss_changes":[1.505072E2,1.6042537E2,1.0749512E2,2.1814221E2,1.2510498E2,5.581343E1,5.2232388E1,0E0,0E0,0E0,0E0,0E0,0E0,0E0,0E0],"parents":[2147483647,0,0,1,1,2,2,3,3,4,4,5,5,6,6],"right_children":[2,4,6,8,10,12,14,-1,-1,-1,-1,-1,-1,-1,-1],"split_conditions":[1.3365154E0,4.134702E-1,2.3553748E-1,1.626029E0,2.329917E-2,1.7339511E-1,5.5725803E0,-4.939695E-2,1.506763E-1,9.7233705E-2,-7.2731613E-3,-1.0486952E-1,2.2017498E-1,1.9226811E-3,1.2674507E-1],"split_indices":[64,134,84,105,157,83,82,0,0,0,0,0,0,0,0],"split_type":[0,0,0,0,0,0,0,0,0,0,0,0,0,0,0],"sum_hessian":[1.6128998E4,1.3929507E4,2.1994915E3,9.466861E3,4.4626455E3,5.191857E2,1.6803057E3,8.948924E3,5.179378E2,1.6147485E3,2.8478967E3,5.2332836E1,4.6685294E2,1.2872052E3,3.9310056E2],"tree_param":{"num_deleted":"0","num_feature":"160","num_nodes":"15","size_leaf_vector":"0"}},{"base_weights":[-3.9924476E-3,3.506456E-1,-2.0893507E-2,4.6608207E-1,2.2473133E-1,5.7450887E-3,-2.4638078E-1,-5.227363E-1,4.8905826E-1,2.8304672E-1,-3.7371367E-1,4.5062768E-1,-5.962941E-3,-4.8704144E-1,-1.4891954E-1],"categories":[],"categories_nodes":[],"categories_segments":[],"categories_sizes":[],"default_left":[0,0,0,0,0,0,0,0,0,0,0,0,0,0,0],"id":71,"left_children":[1,3,5,7,9,11,13,-1,-1,-1,-1,-1,-1,-1,-1],"loss_changes":[1.531563E2,1.6790453E1,1.4650417E2,1.4011852E1,1.9575203E1,1.1362556E2,6.037064E1,0E0,0E0,0E0,0E0,0E0,0E0,0E0,0E0],"parents":[2147483647,0,0,1,1,2,2,3,3,4,4,5,5,6,6],"right_children":[2,4,6,8,10,12,14,-1,-1,-1,-1,-1,-1,-1,-1],"split_conditions":[-1.8024378E0,-2.3629288E-1,1.651525E-1,-8.264399E-1,1.8950553E-1,-7.4674326E-1,-1.1328225E-1,-1.568209E-1,1.4671749E-1,8.491402E-2,-1.1211411E-1,1.3518831E-1,-1.7888823E-3,-1.4611244E-1,-4.4675864E-2],"split_indices":[37,128,152,156,105,31,142,0,0,0,0,0,0,0,0],"split_type":[0,0,0,0,0,0,0,0,0,0,0,0,0,0,0],"sum_hessian":[2.5550408E4,1.1613723E3,2.4389035E4,6.0448615E2,5.568861E2,2.181306E4,2.575975E3,1.3232946E1,5.912532E2,5.0791904E2,4.8967083E1,5.5837555E2,2.1254686E4,7.413543E2,1.8346207E3],"tree_param":{"num_deleted":"0","num_feature":"160","num_nodes":"15","size_leaf_vector":"0"}},{"base_weights":[9.119171E-3,2.2677314E-2,-2.7538052E-1,3.367092E-2,-4.0154907E-1,-4.7883672E-1,-1.1534422E-1,2.4774669E-2,4.5944476E-1,-4.8531365E-1,1.1359321E-1,-4.919775E-1,8.431564E-1,7.543568E-1,-1.6536725E-1],"categories":[],"categories_nodes":[],"categories_segments":[],"categories_sizes":[],"default_left":[0,0,0,0,0,0,0,0,0,0,0,0,0,0,0],"id":72,"left_children":[1,3,5,7,9,11,13,-1,-1,-1,-1,-1,-1,-1,-1],"loss_changes":[1.2880075E2,1.4865744E2,4.9401592E1,1.1766708E2,3.479834E1,1.2026748E1,3.7169315E1,0E0,0E0,0E0,0E0,0E0,0E0,0E0,0E0],"parents":[2147483647,0,0,1,1,2,2,3,3,4,4,5,5,6,6],"right_children":[2,4,6,8,10,12,14,-1,-1,-1,-1,-1,-1,-1,-1],"split_conditions":[1.5223408E0,8.2068914E-1,-6.3268286E-1,8.1895345E-1,9.289451E-2,1.6282129E0,-3.6369044E-1,7.4324007E-3,1.3783343E-1,-1.455941E-1,3.4077965E-2,-1.4759326E-1,2.5294694E-1,2.2630705E-1,-4.9610175E-2],"split_indices":[49,26,113,28,136,116,12,0,0,0,0,0,0,0,0],"split_type":[0,0,0,0,0,0,0,0,0,0,0,0,0,0,0],"sum_hessian":[3.3388918E4,3.1870992E4,1.5179265E3,3.1066832E4,8.041603E2,6.674265E2,8.505E2,3.0432035E4,6.347983E2,6.917383E2,1.1242201E2,6.614792E2,5.9473433E0,4.5492176E1,8.050079E2],"tree_param":{"num_deleted":"0","num_feature":"160","num_nodes":"15","size_leaf_vector":"0"}},{"base_weights":[-1.2269094E-2,-3.1190288E-1,1.7713761E-2,2.1366541E-1,-3.78518E-1,1.542569E-1,-4.1633476E-2,-9.433582E-2,4.6308517E-1,-4.3396592E-1,1.7307812E-2,-3.3432865E-1,1.9569011E-1,-1.1489143E-1,1.7784746E-1],"categories":[],"categories_nodes":[],"categories_segments":[],"categories_sizes":[],"default_left":[0,0,0,0,0,0,0,0,0,0,0,0,0,0,0],"id":73,"left_children":[1,3,5,7,9,11,13,-1,-1,-1,-1,-1,-1,-1,-1],"loss_changes":[1.4189253E2,5.0380035E1,1.1635457E2,1.250813E1,2.8000183E1,8.812713E1,1.6094846E2,0E0,0E0,0E0,0E0,0E0,0E0,0E0,0E0],"parents":[2147483647,0,0,1,1,2,2,3,3,4,4,5,5,6,6],"right_children":[2,4,6,8,10,12,14,-1,-1,-1,-1,-1,-1,-1,-1],"split_conditions":[-2.4889283E-1,-1.8186121E0,-1.3338952E-1,2.0492697E0,9.775695E-1,-2.8528833E0,4.1854757E-1,-2.8300745E-2,1.3892555E-1,-1.3018978E-1,5.192344E-3,-1.002986E-1,5.8707036E-2,-3.4467433E-2,5.335424E-2],"split_indices":[21,133,158,86,96,107,153,0,0,0,0,0,0,0,0],"split_type":[0,0,0,0,0,0,0,0,0,0,0,0,0,0,0],"sum_hessian":[1.5792517E4,1.4356763E3,1.435684E4,1.6125183E2,1.2744244E3,4.349085E3,1.0007755E4,7.2430855E1,8.882098E1,1.1177516E3,1.5667291E2,3.3942896E2,4.009656E3,7.50367E3,2.5040852E3],"tree_param":{"num_deleted":"0","num_feature":"160","num_nodes":"15","size_leaf_vector":"0"}},{"base_weights":[-4.3895165E-3,2.6206542E-2,-1.7568888E-1,-8.301883E-2,9.065114E-2,1.6900702E-1,-2.581354E-1,1.9147106E-1,-1.6498743E-1,2.4542956E-1,-8.25639E-3,-6.2069498E-2,4.2662892E-1,2.3805213E-1,-3.186102E-1],"categories":[],"categories_nodes":[],"categories_segments":[],"categories_sizes":[],"default_left":[0,0,0,0,0,0,0,0,0,0,0,0,0,0,0],"id":74,"left_children":[1,3,5,7,9,11,13,-1,-1,-1,-1,-1,-1,-1,-1],"loss_changes":[1.3220064E2,1.5065234E2,1.0867604E2,1.787249E2,2.0606412E2,4.3985176E1,9.265009E1,0E0,0E0,0E0,0E0,0E0,0E0,0E0,0E0],"parents":[2147483647,0,0,1,1,2,2,3,3,4,4,5,5,6,6],"right_children":[2,4,6,8,10,12,14,-1,-1,-1,-1,-1,-1,-1,-1],"split_conditions":[6.054683E-2,-1.3526253E-1,-2.9244143E-1,-1.2891665E0,-1.7212205E-1,-2.0749478E-1,-4.2004496E-1,5.744132E-2,-4.949623E-2,7.362887E-2,-2.476917E-3,-1.862085E-2,1.2798868E-1,7.141564E-2,-9.558306E-2],"split_indices":[114,154,20,122,4,1,90,0,0,0,0,0,0,0,0],"split_type":[0,0,0,0,0,0,0,0,0,0,0,0,0,0,0],"sum_hessian":[2.5222025E4,2.1400496E4,3.8215303E3,7.9410835E3,1.3459412E4,7.374247E2,3.0841057E3,1.8257666E3,6.115317E3,5.247002E3,8.212409E3,3.891404E2,3.4828427E2,3.347326E2,2.749373E3],"tree_param":{"num_deleted":"0","num_feature":"160","num_nodes":"15","size_leaf_vector":"0"}},{"base_weights":[7.392911E-3,1.7684774E-2,-3.2147896E-1,2.3754422E-2,-4.852209E-1,-6.7377067E-1,-2.1526681E-1,3.365072E-2,-2.8095317E-1,-9.0187E-2,-6.208556E-1,-7.519709E-1,4.6974385E-1,-4.841653E-1,-8.0566555E-2],"categories":[],"categories_nodes":[],"categories_segments":[],"categories_sizes":[],"default_left":[0,0,0,0,0,0,0,0,0,0,0,0,0,0,0],"id":75,"left_children":[1,3,5,7,9,11,13,-1,-1,-1,-1,-1,-1,-1,-1],"loss_changes":[1.11270325E2,9.7312355E1,3.7181725E1,9.4988014E1,2.0314047E1,2.0975739E1,2.7776806E1,0E0,0E0,0E0,0E0,0E0,0E0,0E0,0E0],"parents":[2147483647,0,0,1,1,2,2,3,3,4,4,5,5,6,6],"right_children":[2,4,6,8,10,12,14,-1,-1,-1,-1,-1,-1,-1,-1],"split_conditions":[1.8698721E0,1.0969229E0,3.0853742E-1,5.3206997E0,-2.5156885E-1,4.025182E-1,-1.4560746E-2,1.0095216E-2,-8.428595E-2,-2.70561E-2,-1.8625669E-1,-2.2559127E-1,1.4092316E-1,-1.452496E-1,-2.4169968E-2],"split_indices":[55,27,52,97,15,120,64,0,0,0,0,0,0,0,0],"split_type":[0,0,0,0,0,0,0,0,0,0,0,0,0,0,0],"sum_hessian":[3.2871777E4,3.1875205E4,9.965708E2,3.1496027E4,3.7917764E2,2.296172E2,7.669536E2,3.0506139E4,9.8988916E2,9.734037E1,2.8183728E2,2.1524022E2,1.4376986E1,2.551033E2,5.1185028E2],"tree_param":{"num_deleted":"0","num_feature":"160","num_nodes":"15","size_leaf_vector":"0"}},{"base_weights":[-1.0087624E-2,1.1466936E-1,-7.247013E-2,-2.1568578E-1,1.7158166E-1,-1.558876E-1,1.2972008E-1,-2.917247E-1,3.3388233E-1,1.2136266E-1,5.359815E-1,-2.3837328E-1,9.121128E-2,5.4613024E-1,6.8800285E-2],"categories":[],"categories_nodes":[],"categories_segments":[],"categories_sizes":[],"default_left":[0,0,0,0,0,0,0,0,0,0,0,0,0,0,0],"id":76,"left_children":[1,3,5,7,9,11,13,-1,-1,-1,-1,-1,-1,-1,-1],"loss_changes":[1.2089348E2,9.7392914E1,1.7467787E2,3.1915968E1,8.0778656E1,1.4945146E2,7.6701355E1,0E0,0E0,0E0,0E0,0E0,0E0,0E0,0E0],"parents":[2147483647,0,0,1,1,2,2,3,3,4,4,5,5,6,6],"right_children":[2,4,6,8,10,12,14,-1,-1,-1,-1,-1,-1,-1,-1],"split_conditions":[-2.0810036E-1,-2.6361895E0,4.2790502E-1,6.0166483E0,1.2849092E0,7.317676E-1,-5.5414245E-2,-8.751742E-2,1.00164704E-1,3.6408797E-2,1.6079445E-1,-7.1511984E-2,2.7363386E-2,1.6383907E-1,2.0640086E-2],"split_indices":[138,105,153,85,23,113,129,0,0,0,0,0,0,0,0],"split_type":[0,0,0,0,0,0,0,0,0,0,0,0,0,0,0],"sum_hessian":[1.5531643E4,5.1771567E3,1.0354486E4,7.6041785E2,4.416739E3,7.330412E3,3.0240742E3,6.684056E2,9.201226E1,3.8829512E3,5.337877E2,5.495844E3,1.834568E3,3.8493445E2,2.6391396E3],"tree_param":{"num_deleted":"0","num_feature":"160","num_nodes":"15","size_leaf_vector":"0"}},{"base_weights":[-3.4792458E-3,3.0961925E-1,-1.8400375E-2,3.8572645E-1,8.693564E-2,-1.3896576E-1,2.4547223E-2,-8.199547E-2,4.1000807E-1,-1.1898458E0,1.8584956E-1,1.565919E-1,-2.5757298E-1,1.3484737E-1,-1.3349941E-1],"categories":[],"categories_nodes":[],"categories_segments":[],"categories_sizes":[],"default_left":[0,0,0,0,0,0,0,0,0,0,0,0,0,0,0],"id":77,"left_children":[1,3,5,7,9,11,13,-1,-1,-1,-1,-1,-1,-1,-1],"loss_changes":[1.1593731E2,1.9098305E1,1.2265669E2,9.585274E0,3.669826E1,2.181466E2,3.045063E2,0E0,0E0,0E0,0E0,0E0,0E0,0E0,0E0],"parents":[2147483647,0,0,1,1,2,2,3,3,4,4,5,5,6,6],"right_children":[2,4,6,8,10,12,14,-1,-1,-1,-1,-1,-1,-1,-1],"split_conditions":[-1.717061E0,-3.1751448E-1,-2.1586613E-1,-6.2249476E-1,-1.2914791E0,-1.5581541E0,-1.1850457E-1,-2.4598643E-2,1.23002425E-1,-3.5695374E-1,5.575487E-2,4.6977576E-2,-7.727189E-2,4.0454213E-2,-4.0049825E-2],"split_indices":[37,97,131,92,19,102,5,0,0,0,0,0,0,0,0],"split_type":[0,0,0,0,0,0,0,0,0,0,0,0,0,0,0],"sum_hessian":[2.4814283E4,1.1278667E3,2.3686416E4,8.4003375E2,2.878329E2,6.220782E3,1.7465633E4,4.134047E1,7.986933E2,1.9902481E1,2.6793042E2,1.781396E3,4.439386E3,1.0286719E4,7.178915E3],"tree_param":{"num_deleted":"0",